netstr = {"layers":[{"out_depth":1,"out_sx":28,"out_sy":28,"layer_type":"input"},{"sx":5,"sy":5,"stride":1,"in_depth":1,"out_depth":8,"out_sx":28,"out_sy":28,"layer_type":"conv","l1_decay_mul":0,"l2_decay_mul":1,"pad":2,"filters":[{"sx":5,"sy":5,"depth":1,"w":{"0":0.24835629861326125,"1":-0.01206531146108721,"2":-0.16340082575070689,"3":-0.057011011886281174,"4":-0.2337104937755191,"5":0.4463043729860787,"6":0.002439475586935369,"7":-0.30245682144054004,"8":-0.1826514346372738,"9":0.2911938742660879,"10":0.5929021099316555,"11":-0.011538578204937469,"12":-0.44551273115735524,"13":-0.43941043211384534,"14":0.43995692498203476,"15":0.44323536884364984,"16":0.03414270006356345,"17":-0.8290316263896409,"18":-0.5050655739968009,"19":0.9085878387090037,"20":0.25124031407970726,"21":0.08029461076466854,"22":-0.22532984677945628,"23":-0.27801834055803804,"24":0.6114369171106978}},{"sx":5,"sy":5,"depth":1,"w":{"0":0.5470177478099246,"1":0.3956294213933315,"2":0.040321351647339694,"3":0.16525557876631158,"4":0.18134050082159922,"5":-0.3153782861910818,"6":0.030241107203633228,"7":-0.08993556080630073,"8":-0.3816680063922059,"9":-0.23812024736461715,"10":-0.7522739749710345,"11":-0.6125423091512152,"12":-0.4144123627096922,"13":-0.1811897462571468,"14":-0.2706281324613737,"15":0.608556622612355,"16":-0.13562344539936408,"17":0.350446884872178,"18":-0.0022098122103613865,"19":0.03483292481468913,"20":0.6485698860180914,"21":-0.08335951684941385,"22":0.29132622552736753,"23":0.26483728025987097,"24":0.09709558759600904}},{"sx":5,"sy":5,"depth":1,"w":{"0":0.6173670746198837,"1":0.6754277516818745,"2":0.4670069706574485,"3":0.29932343726063804,"4":0.47429285946211575,"5":0.5064299574661221,"6":0.13025633216679972,"7":0.310705473214557,"8":-0.2999007636543151,"9":-0.2628665449284113,"10":0.04565955065369752,"11":-0.31126191694199395,"12":-0.23085035662001915,"13":-0.2843328396894482,"14":-0.5801648438159329,"15":-0.3919938842776741,"16":-0.6037637407185327,"17":-0.4634383849340385,"18":-0.7480024416120452,"19":0.31505583270021,"20":-0.1807642389155422,"21":-0.1620910836657186,"22":-0.2207839010925317,"23":0.5095972109491296,"24":0.3366293043685008}},{"sx":5,"sy":5,"depth":1,"w":{"0":0.04798850858883963,"1":0.655960851912554,"2":0.49017163945403003,"3":0.1664274031225497,"4":0.23766170159878144,"5":0.660284978778338,"6":0.24629706073231647,"7":-0.940070409295976,"8":-0.5158779309884295,"9":-0.08379168617821549,"10":0.5993775213784761,"11":0.5621486886156245,"12":-0.030814493268833627,"13":-0.3888911009446841,"14":-0.0159633667778011,"15":-0.5672664624940499,"16":-0.04632947534204207,"17":0.27153243233845664,"18":-0.004415250260237182,"19":0.3499178792783848,"20":0.029636533446028204,"21":0.3315542779759256,"22":0.4051870740722266,"23":0.41829428868014523,"24":-0.13170028253392901}},{"sx":5,"sy":5,"depth":1,"w":{"0":-0.2958484699608306,"1":0.07260805910624575,"2":-0.1655013898714261,"3":-0.34969582547619843,"4":0.047401747090758145,"5":0.2993420285363908,"6":-0.2492215331464467,"7":-0.7602517306134743,"8":-0.5978905619317111,"9":-0.18100784613408605,"10":-0.017154060616402803,"11":0.2575120264354715,"12":-0.360237894797862,"13":-0.1803984068818638,"14":-0.23534423213531214,"15":0.3491255415615412,"16":0.20315772797908704,"17":0.07265665029090213,"18":0.8846424909481757,"19":0.652761481185749,"20":-0.18454049542900064,"21":0.2893970862472253,"22":0.5588049207958325,"23":0.4865754306357039,"24":-0.017031591319078408}},{"sx":5,"sy":5,"depth":1,"w":{"0":-0.0709116874989488,"1":0.29340708260375853,"2":-0.014680290856497304,"3":-0.8362630364573975,"4":-0.3594661893706599,"5":0.30584658438597045,"6":-0.14916881494852324,"7":0.7693945193562827,"8":0.2062274559466326,"9":0.5777011408220698,"10":-0.3600884812642691,"11":-0.10088323438027544,"12":0.49830807006980044,"13":-0.11369115257442777,"14":0.23642918833067045,"15":-0.12150292513268049,"16":0.0843629427094936,"17":0.4873134295185479,"18":-0.38490812874990565,"19":-0.5509001653913864,"20":0.0646832641645873,"21":-0.07764187042640698,"22":0.03702871766127161,"23":-0.2528820842782636,"24":-0.07179915713542454}},{"sx":5,"sy":5,"depth":1,"w":{"0":0.48832397899163815,"1":0.8666021153736496,"2":-0.20207158822936805,"3":-0.4205266190485168,"4":-0.5176121148704741,"5":-0.24010401435771833,"6":0.5622820121155983,"7":0.621609614703457,"8":0.28241121685704734,"9":-0.43407897718795196,"10":-0.5758503165257738,"11":0.18118950161136155,"12":0.7693189173154691,"13":0.8588819133280959,"14":0.08338676686080561,"15":-0.509404005342411,"16":-0.2658153625678193,"17":-0.2233554702314635,"18":0.5947446506571819,"19":0.22681296480539515,"20":-0.2609315437082902,"21":-0.3227833709026245,"22":-0.3580927489802491,"23":-0.06450187561856607,"24":0.03521205121287265}},{"sx":5,"sy":5,"depth":1,"w":{"0":-0.12738642370786776,"1":0.18557931136114394,"2":-0.11961311752262588,"3":0.22743121551596124,"4":0.33245538302681354,"5":0.23950999616237126,"6":0.053197571478374256,"7":-0.11170366915168473,"8":0.29236836053105725,"9":0.6151420326184031,"10":-0.2678068957473616,"11":-0.420886187258929,"12":0.04767437770039756,"13":0.4530687232551685,"14":0.03952859472543449,"15":-0.4230534154855104,"16":-0.3288793100429135,"17":-0.020512390965072957,"18":0.6793397043019707,"19":0.30607573998329285,"20":-0.18154762577327987,"21":0.4240165425303393,"22":0.5290842153490566,"23":0.2468329489084143,"24":0.39332976670734227}}],"biases":{"sx":1,"sy":1,"depth":8,"w":{"0":0.07682116853516774,"1":-0.1447955581255388,"2":-0.17284077350803884,"3":0.15438120669545868,"4":0.0458431950196764,"5":0.07233323398499178,"6":-0.06759361228576875,"7":0.09523407345867073}}},{"out_depth":8,"out_sx":28,"out_sy":28,"layer_type":"relu"},{"sx":2,"sy":2,"stride":2,"in_depth":8,"out_depth":8,"out_sx":14,"out_sy":14,"layer_type":"pool","pad":0},{"sx":5,"sy":5,"stride":1,"in_depth":8,"out_depth":16,"out_sx":14,"out_sy":14,"layer_type":"conv","l1_decay_mul":0,"l2_decay_mul":1,"pad":2,"filters":[{"sx":5,"sy":5,"depth":8,"w":{"0":-0.0749821152945271,"1":-0.07821789064011843,"2":-0.02488960667812079,"3":0.21666203100815465,"4":-0.2290040829531141,"5":-0.24412099373107898,"6":-0.018232741385353142,"7":0.3597042726037712,"8":0.005328811500616348,"9":0.15360704270879605,"10":-0.1581556769754959,"11":-0.1606996159544713,"12":-0.11991951801160405,"13":-0.03198972875139811,"14":-0.1361559872287195,"15":0.18293876968437903,"16":0.31615284830022305,"17":0.014033129864525823,"18":-0.06148377948281262,"19":-0.0975590458033974,"20":0.02823097916660929,"21":0.359290715858243,"22":-0.23572872194314132,"23":-0.15148492609794972,"24":0.36860488235721145,"25":-0.050136483314085954,"26":0.08228067442663341,"27":-0.0028101807197697393,"28":-0.024235016540420797,"29":0.372404205208274,"30":-0.841328005532279,"31":0.28884023119256746,"32":0.3635876766903128,"33":-0.2853348769416068,"34":0.08801011316740616,"35":0.0788309966833715,"36":0.0008029627977503346,"37":0.16313350726301823,"38":-0.5129473504384624,"39":0.1562114025293393,"40":-0.20191808623251836,"41":0.15769204850638524,"42":-0.0009983537956428186,"43":-0.04341206579474835,"44":0.012156890186280913,"45":0.25259161538315855,"46":-0.21922978630574513,"47":0.12961523483254583,"48":0.04632123084320867,"49":0.07406177256913608,"50":-0.07397991614537794,"51":-0.1771486038024004,"52":-0.09889180393224098,"53":-0.15925135452817757,"54":-0.22340178994055282,"55":0.12372505751419685,"56":-0.005401119582869717,"57":-0.2922542152701799,"58":-0.3070928244252676,"59":-0.007482967043207638,"60":-0.3102665044664369,"61":-0.17115984841477797,"62":0.09081153033586215,"63":0.11778100523229942,"64":0.3217940739153929,"65":-0.2984560434835658,"66":-0.30732043030832923,"67":0.6065465476535015,"68":0.0314907200619707,"69":-0.042819681935926425,"70":0.09349653369808822,"71":0.03640064278077369,"72":0.18424765398739562,"73":0.11722454863904358,"74":-0.07129812171423526,"75":0.3094185556033895,"76":0.058559178056938235,"77":0.006430482850168039,"78":-0.015870617079882278,"79":0.05526212426167463,"80":-0.2473330407034722,"81":0.3682132265703365,"82":0.1732727815475758,"83":-0.4079150837811487,"84":-0.0878387401892922,"85":-0.08049458641769049,"86":-0.1726810520729392,"87":-0.000042506526409957605,"88":-0.026025290244716053,"89":-0.17989981762409452,"90":0.09455111427725214,"91":-0.08417343845122069,"92":-0.09737001004106235,"93":-0.054996798208051735,"94":0.07512309970000293,"95":0.08932642310515014,"96":-0.15644128301944385,"97":-0.5377935133604117,"98":-0.5261345482826097,"99":0.10951978749718462,"100":-0.5070245309094372,"101":0.26037184361678656,"102":0.3860353754021263,"103":0.1138281866845411,"104":-0.12208474630572898,"105":-0.24663769100598365,"106":-0.17461139460767613,"107":0.14453523341705268,"108":0.010395595736236392,"109":0.12020648588444616,"110":0.5977554111307928,"111":-0.4070391827118905,"112":0.14433447172763283,"113":0.3406567563094723,"114":-0.06258541690555473,"115":0.2068039954745585,"116":0.2952384394510143,"117":-0.09239637984555042,"118":-0.05704342820872017,"119":-0.20218711011875246,"120":-0.001673295888230523,"121":0.1420627642340634,"122":-0.1383744791676056,"123":-0.029299514395338594,"124":0.16162907966700837,"125":0.03171297678735725,"126":-0.1951625190138722,"127":-0.4452319652924222,"128":-0.0580156117202579,"129":0.4513206778785491,"130":0.22536278671521698,"131":-0.2010417941344922,"132":0.08141171544042454,"133":-0.044172062766272814,"134":0.10890507459340344,"135":-0.2026708547283925,"136":-0.4247996478630819,"137":-0.007395044395547858,"138":0.0935970047180807,"139":-0.1271419132751055,"140":-0.05962292879269667,"141":-0.029940185265754152,"142":0.08458159363024038,"143":0.04922680054006632,"144":-0.2145113355836283,"145":-0.14880608876255857,"146":-0.1350564409722559,"147":-0.06376248252332459,"148":-0.24460544167261328,"149":0.13896931683222918,"150":0.23863525980307557,"151":-0.21913197247332644,"152":-0.1325965438237837,"153":0.16460149532590493,"154":-0.08648376694091903,"155":0.2708452159815879,"156":-0.05192666083156973,"157":0.084854249956614,"158":0.3824829190482304,"159":-0.0667310657998802,"160":-0.17035280576514777,"161":0.14415084505180384,"162":0.03662098376184252,"163":-0.03695917684728476,"164":0.1804748075992867,"165":0.0210313210100239,"166":0.0009186160881447794,"167":-0.4207658854527388,"168":-0.06403328687520203,"169":0.27427151061153143,"170":0.14079701579480916,"171":0.007752953505742262,"172":0.0745745521517559,"173":-0.22795682569185893,"174":-0.20760995838836335,"175":0.046200490546906905,"176":-0.27844029660433134,"177":-0.014766790914566948,"178":0.0265053180053228,"179":-0.14445165047386715,"180":0.0500847265321801,"181":0.08003044738641463,"182":-0.20574491145582513,"183":-0.2037575233081749,"184":0.05541401547982088,"185":-0.37247117750077435,"186":0.02860154966535681,"187":-0.2387638035139306,"188":-0.08971070117019532,"189":0.20276185247130052,"190":0.0036110838083959523,"191":-0.16218710835300348,"192":-0.005903146612661558,"193":-0.2336720038637463,"194":-0.11397735142064612,"195":0.24628321953334137,"196":-0.18302830426118438,"197":0.4030802407250166,"198":0.35578749754816547,"199":-0.006423295697895236}},{"sx":5,"sy":5,"depth":8,"w":{"0":-0.10099061192624359,"1":0.042886328216095976,"2":0.03192874155953173,"3":0.05953394079667123,"4":-0.34906252220097755,"5":0.007561063851817055,"6":0.05189037839430473,"7":-0.02411361270919351,"8":0.09635015299431537,"9":-0.17849320402208055,"10":-0.14158701938541673,"11":-0.10996875561956705,"12":-0.11863442734521261,"13":0.17639344095121035,"14":0.1891614581938312,"15":0.26561567080091353,"16":0.26764319805236475,"17":-0.03529411777610506,"18":-0.2987830156938058,"19":0.012927061914617413,"20":-0.04202520772573317,"21":0.17151939401408364,"22":0.1337407315143886,"23":-0.28277260044972563,"24":0.09119469467086423,"25":-0.09710576640784944,"26":-0.24151067043887411,"27":-0.0835292433874695,"28":0.12581783777643413,"29":-0.1808835421021359,"30":-0.08025778653971019,"31":-0.1803595641396445,"32":-0.32321113348230324,"33":-0.1551068622674796,"34":-0.43267836892744443,"35":-0.399436293648415,"36":0.13645241815392453,"37":-0.22393224972126682,"38":0.06377880632093087,"39":0.08738600971265989,"40":-0.011481137370435747,"41":-0.13920895558431287,"42":-0.42404000331977654,"43":-0.3651525482044804,"44":-0.39386436393066887,"45":-0.1784389395612995,"46":-0.012656038345125471,"47":0.01236373143160818,"48":0.06441695013340604,"49":-0.32308067179593825,"50":-0.26309795965125404,"51":-0.13194311219327268,"52":-0.27596637468024693,"53":-0.039412378499641645,"54":0.15263934451974778,"55":0.1905838891325642,"56":0.15658361786614855,"57":-0.28448451936512953,"58":-0.2991593459479555,"59":0.1629534754435921,"60":-0.18460819291480943,"61":-0.03113616759307178,"62":-0.250925532100561,"63":-0.23853859372709146,"64":0.15365364138899054,"65":-0.19029731663533306,"66":-0.363710531761455,"67":-0.10543915469707378,"68":-0.20804154178618986,"69":-0.0700608933322409,"70":-0.12487773564845757,"71":-0.26798266218788214,"72":-0.0856525347592874,"73":-0.3250154415954349,"74":-0.16917731528025076,"75":-0.3659716120955195,"76":0.020485712117877766,"77":-0.09304223127160936,"78":-0.1479968083318408,"79":0.09697106801442631,"80":0.10799018292300479,"81":-0.07257392643972103,"82":-0.3400343507154745,"83":-0.23949751710586142,"84":-0.2738024884933572,"85":-0.3552949169605646,"86":-0.021985758530547267,"87":-0.1947120263762946,"88":-0.1038637090433259,"89":0.05335724094412879,"90":-0.21555370595933893,"91":-0.23442900482457943,"92":-0.2177466140522648,"93":0.05567720692128694,"94":0.10843328128370909,"95":0.09858816291608308,"96":0.04775296567216314,"97":-0.019423345252983032,"98":-0.12245657619473947,"99":0.29423044481108346,"100":-0.1897573138638503,"101":0.008724197626564931,"102":0.23765511025085126,"103":-0.09608271775472844,"104":0.10918136935589405,"105":0.0964522324539971,"106":-0.1506196168006675,"107":-0.01034510856362171,"108":0.052750456724966574,"109":-0.3807281591836125,"110":-0.2985328727081662,"111":-0.1446069481046291,"112":-0.38179428926109077,"113":-0.201780102651857,"114":-0.15611874484614582,"115":-0.17502295633902812,"116":-0.3074480980295596,"117":-0.19573724032285647,"118":-0.15446239264740355,"119":0.1395043864518436,"120":0.21603551217401068,"121":-0.05652702501798503,"122":-0.24999210736001046,"123":-0.2509701829124356,"124":0.11368363199816399,"125":-0.2189952557875114,"126":-0.24579224951397202,"127":-0.3171616673435355,"128":0.08139552741875013,"129":0.07122744493130138,"130":-0.34377160380689353,"131":-0.40974009770180125,"132":0.0839933942475578,"133":0.030555589308573147,"134":0.06718567915895839,"135":0.17564003542573042,"136":0.12351137596924094,"137":0.04739406472987591,"138":0.08688720667149169,"139":0.030212136694536148,"140":0.2835301538648446,"141":0.0812648166718054,"142":0.1214448193939261,"143":-0.0284568027281255,"144":0.1388908017354805,"145":0.06658364101883753,"146":0.003859569235710897,"147":-0.0646353975763429,"148":0.13192883077991005,"149":-0.2562377010366612,"150":0.1606967561793806,"151":0.16138866621745887,"152":-0.23830323888985408,"153":0.08311792763066017,"154":-0.1925563012722361,"155":-0.30993576732963585,"156":0.11677291360935474,"157":-0.11960792032907712,"158":-0.49746967106706813,"159":-0.05507238831954461,"160":0.16179286052413824,"161":0.016367144572475175,"162":0.03801861700938772,"163":0.06595852785239072,"164":0.09514562102808205,"165":-0.1085988967098062,"166":0.18670739053282742,"167":-0.1722518772716688,"168":-0.04928028390755117,"169":0.13328217136148668,"170":-0.2041551350321212,"171":-0.4167035211665524,"172":0.10912180111223391,"173":0.018054508115942138,"174":-0.1657005786496868,"175":0.14687889890069183,"176":0.14706722243083178,"177":0.2985316429947422,"178":-0.04588250423589834,"179":-0.06768829370641906,"180":0.11180805570325136,"181":-0.008776232093004238,"182":0.043255157890757706,"183":0.24742592191440374,"184":0.037677821970009386,"185":0.23906067273118173,"186":0.06929677797639434,"187":-0.365530868036204,"188":0.41842421759949877,"189":-0.030634275859081045,"190":0.028743088289998026,"191":0.12323755073346754,"192":0.05176572470191417,"193":-0.02098121858798837,"194":-0.02220672717547039,"195":0.08138870158197939,"196":0.4021391286830608,"197":0.05415572142618522,"198":-0.048781568288765245,"199":0.11349661035998358}},{"sx":5,"sy":5,"depth":8,"w":{"0":0.12663528260582385,"1":0.0017389293011789032,"2":0.3294758858159957,"3":0.03300963484914477,"4":-0.10430516504792356,"5":0.12917078347928038,"6":0.22530367538460758,"7":-0.0880144213930354,"8":-0.16222627298762804,"9":-0.04321589969122421,"10":-0.01779158236011568,"11":-0.11323244213198604,"12":-0.3361831103049176,"13":-0.18512468283354463,"14":0.11615422297749808,"15":0.38312004965937585,"16":-0.21754993686324972,"17":-0.01936940623260348,"18":-0.01623468783337192,"19":0.08499956986744805,"20":0.09517977995616657,"21":-0.023767355213755295,"22":-0.08484819531859564,"23":-0.12376742396517888,"24":0.07528412331594729,"25":0.04773668262531513,"26":-0.012762996923993693,"27":0.16778614029588176,"28":-0.06448899164018787,"29":0.05999104700577334,"30":0.04801224323055695,"31":0.1199819321526443,"32":0.06860835858364467,"33":0.04358605151694882,"34":-0.21635973659317695,"35":0.03266450874169113,"36":-0.015282093919653674,"37":0.04439303705537199,"38":0.03405287045550258,"39":-0.06744239797461474,"40":-0.017167343360535693,"41":0.13794798632795885,"42":-0.1575833458307728,"43":-0.4464802496128536,"44":-0.04297035431711928,"45":-0.026113643702928593,"46":-0.3813206746188094,"47":-0.1068482017270987,"48":0.1902739710131955,"49":-0.0072112241157692184,"50":0.006496402747902698,"51":-0.05658354119855569,"52":-0.15241757593434288,"53":0.08649798824538789,"54":-0.02123819005553216,"55":0.19333310087463496,"56":-0.14545853414338414,"57":-0.17153159286897898,"58":-0.05729109664050187,"59":0.06179319427347184,"60":-0.2945611794959134,"61":0.14398051236965198,"62":-0.009271628255558804,"63":0.1864837258976934,"64":0.2892433205237893,"65":0.13488009776927443,"66":-0.40193934362729034,"67":0.035108974906858215,"68":-0.0818662288144255,"69":-0.03395211528416378,"70":-0.034582830088956865,"71":0.03279923650155847,"72":0.03652628971085648,"73":0.3481182803562904,"74":-0.1532432336438099,"75":0.03148467504213664,"76":0.266685012710069,"77":0.01402814448649208,"78":-0.1984649749492437,"79":0.08285700899440257,"80":0.42097664293091747,"81":-0.17198095011193465,"82":-0.021424904819834247,"83":0.005691264264825387,"84":-0.4691202269265128,"85":-0.20764196973120408,"86":-0.45369226960951736,"87":-0.21660098274449036,"88":0.32869775255026973,"89":0.0028442397736312738,"90":0.019901477839207142,"91":0.0861445911682688,"92":-0.22462433226177717,"93":-0.24051792946217382,"94":-0.22861449296803646,"95":0.013985129392987915,"96":0.013663590421921043,"97":0.005656187798573281,"98":-0.032218957385702296,"99":0.03151207108767329,"100":0.0487279735444106,"101":0.056552340599193035,"102":-0.18026513570536773,"103":0.09262064632639029,"104":0.4595782966724107,"105":-0.28940413459169,"106":0.03624330373100058,"107":0.04087328421877133,"108":-0.2403972000584372,"109":0.15475355151476397,"110":-0.027775167563899163,"111":-0.15864680784096483,"112":0.269811768717785,"113":-0.2445605033712536,"114":0.18562813830820338,"115":-0.08829731506889624,"116":-0.21400735265624712,"117":-0.11574212230744249,"118":-0.02718925894822009,"119":-0.08925770361115809,"120":0.2176739007213456,"121":-0.09035068594013736,"122":0.1656300579085027,"123":-0.0730073529783156,"124":-0.2915293074184627,"125":-0.3578200366993931,"126":-0.16924818167151415,"127":-0.3114793360380376,"128":0.25294765975287664,"129":-0.19050799058822887,"130":0.11733706116420164,"131":-0.23681255374209978,"132":-0.04244386228358368,"133":-0.3122627181573722,"134":0.018055442535414763,"135":0.19921136466599987,"136":0.12286380877586266,"137":-0.21062292714791075,"138":-0.24169605130370908,"139":-0.027009370551721992,"140":0.14424926032063284,"141":0.22478603471399108,"142":-0.2477322514418817,"143":0.221608400381723,"144":0.16718528397608876,"145":-0.23869479136064436,"146":0.18372333239665262,"147":0.0868883558916688,"148":-0.08907706024018124,"149":0.12441479584152282,"150":-0.14278441466540434,"151":0.2835803886151323,"152":0.3052184348729301,"153":-0.2574204653597225,"154":0.025430053129142906,"155":-0.1603327486539577,"156":-0.450542519474818,"157":-0.3462397898686179,"158":-0.3335836485824996,"159":-0.355306596773304,"160":0.3886958799937505,"161":-0.2048323378792855,"162":0.2615623814074938,"163":0.16426489296669108,"164":0.028111071904477695,"165":-0.49501557129014256,"166":-0.09866257611036282,"167":0.09490384350086702,"168":-0.10066485149818144,"169":0.0330010912271648,"170":-0.051031335555372453,"171":-0.3800226176703592,"172":0.18768367080228424,"173":0.003950380370177792,"174":-0.1576907879772433,"175":0.2753342929816081,"176":0.20983055637048315,"177":-0.30574100038567853,"178":-0.308310402487178,"179":-0.030260171803477218,"180":0.13564792477395707,"181":0.1801954225775816,"182":-0.5689000731267292,"183":0.2621490449583017,"184":0.09933338021708088,"185":0.1344504757744715,"186":0.23020942876028117,"187":0.2805771418705732,"188":-0.3226674158265719,"189":0.23269929820216526,"190":-0.11708223039088879,"191":0.17346842142538393,"192":0.3602277919820803,"193":-0.06143718841706211,"194":0.026774934510380603,"195":0.26228949544648017,"196":-0.14954329790407725,"197":-0.25490251754674786,"198":-0.5987241280418726,"199":-0.45937281972579647}},{"sx":5,"sy":5,"depth":8,"w":{"0":-0.03406111683848343,"1":0.17670205936682706,"2":-0.2678856634745316,"3":-0.20294621542380614,"4":0.07872596958752584,"5":-0.22486409347594244,"6":0.03399741390397122,"7":0.02509838462133453,"8":-0.17029515823446917,"9":-0.2843541652268481,"10":-0.4533750316418208,"11":0.220697163783858,"12":-0.12199933590843662,"13":0.06565087101658756,"14":-0.1927990348628636,"15":0.26381187381827254,"16":-0.005970472945995379,"17":-0.17606433587470835,"18":-0.14860077029702282,"19":-0.03387630283079684,"20":-0.3233256860703098,"21":0.22346019385630053,"22":0.06363485327104179,"23":0.17790880957700514,"24":0.23351806355903348,"25":-0.20842981705808397,"26":0.10227337154405278,"27":0.07615549390138315,"28":-0.265995452837824,"29":-0.06908708107575234,"30":0.38452550629450644,"31":0.07817224747708683,"32":-0.1970410963596405,"33":-0.271507600293501,"34":-0.03344295882389359,"35":-0.0380880928479241,"36":-0.15990387198112052,"37":-0.39109754515640965,"38":-0.026845293923617453,"39":0.010787433466734308,"40":0.22755319475378552,"41":0.2950662914262982,"42":-0.27679580080250965,"43":0.08438325186246254,"44":-0.10341409277202321,"45":0.16752808935255342,"46":0.09933542288913097,"47":0.17874561243809065,"48":0.08395016238395077,"49":-0.2852024085051479,"50":0.19726130593858993,"51":-0.06600003717462657,"52":-0.3966881936505775,"53":0.26610030758333275,"54":-0.10540737743793603,"55":0.019563103893550274,"56":0.15499291446736968,"57":0.37737626834696586,"58":0.20177690862224293,"59":0.16014174409716542,"60":-0.056563013976135626,"61":0.08367281131095453,"62":-0.18254411985911453,"63":-0.06843467215790595,"64":0.01832026417622904,"65":-0.01916656236426474,"66":0.18757536899172672,"67":0.0644624654477098,"68":-0.08246427769845187,"69":0.17714131258089724,"70":0.09161871203654647,"71":-0.07920784035680493,"72":0.02571775087097727,"73":-0.1840019340976352,"74":-0.0984592314155773,"75":-0.42737992516321144,"76":0.17391313634314293,"77":-0.27358671760615233,"78":0.0456488179278478,"79":-0.09186544377509412,"80":-0.0290753545841123,"81":-0.1252016343637296,"82":-0.1749733775964993,"83":-0.3162922962225562,"84":-0.22082775705026023,"85":0.04564169750610912,"86":-0.14031463581279688,"87":0.29725449751580485,"88":0.1311415743948044,"89":0.08017168515534857,"90":0.06255314077912079,"91":0.12412283958311031,"92":-0.3985491413056804,"93":-0.06934899946948522,"94":-0.06157486142242389,"95":-0.10204572910138672,"96":0.19854892507970817,"97":-0.09848086614027429,"98":0.03141386857122482,"99":0.13011415493978737,"100":0.027019784242969483,"101":-0.12912393065276664,"102":0.17191917567246828,"103":-0.03192248806696021,"104":0.11427009097299451,"105":-0.07516770505044984,"106":-0.0837573599645994,"107":0.16993484573845566,"108":0.12957234789310235,"109":-0.11025474247930679,"110":-0.19757238886596756,"111":-0.10681136807134627,"112":0.13700218273644313,"113":-0.05881618119884426,"114":-0.37124187029047256,"115":-0.26525222630217665,"116":0.08145632273257129,"117":-0.0938339373140798,"118":-0.05309763307206953,"119":-0.05682148083803115,"120":0.4643948815732065,"121":-0.15381719440043345,"122":0.010112515827576484,"123":0.19600179503579218,"124":-0.1321834886635553,"125":0.25871582790009456,"126":0.053591270019482315,"127":0.0714534770079595,"128":-0.03231480117440176,"129":0.1627811877050259,"130":0.17647903138891263,"131":0.25549339658632814,"132":-0.20568391381335238,"133":0.069491012879494,"134":-0.028311208108958312,"135":-0.11884737535741183,"136":0.07796032761057571,"137":-0.16449479192708327,"138":0.0575244778670549,"139":0.035028775882304346,"140":0.15015996735894316,"141":-0.02883585885332271,"142":0.1282688085986281,"143":-0.24598931454083492,"144":-0.01758227172154319,"145":0.2181360535745868,"146":0.14485642283800765,"147":-0.06661734345805773,"148":0.128676777344968,"149":0.0011285463043939773,"150":0.18486892202563457,"151":-0.051109215706234216,"152":-0.05919407429118495,"153":-0.07918047769387684,"154":0.19931854964863663,"155":-0.09888307140813453,"156":0.15696511031410115,"157":-0.13748689408686024,"158":0.03899519698316914,"159":-0.23418713586882833,"160":0.48878873114909344,"161":0.04275905291904263,"162":0.318280399216697,"163":-0.06419882704049384,"164":-0.42771270477314893,"165":0.10531201972060486,"166":0.19819999190435333,"167":-0.09712920137836706,"168":0.06148303007705684,"169":0.03902898978288252,"170":0.15749061206256101,"171":-0.07977076164484542,"172":-0.1447624982912404,"173":0.12337071704142788,"174":-0.01995923586978636,"175":-0.13784493436346024,"176":-0.16123537237489322,"177":0.06749255290102324,"178":0.0182869384881948,"179":0.04421345799785556,"180":-0.1341459143562055,"181":-0.04588443138650268,"182":0.303433607235622,"183":-0.13260605204687334,"184":-0.11607739383313526,"185":0.1876463118326131,"186":-0.10365168675472043,"187":-0.03250443137708633,"188":0.0013851673340372068,"189":-0.3180916462497813,"190":-0.07772413787325287,"191":-0.073516077305407,"192":-0.4147866403856173,"193":-0.16409366849645798,"194":-0.09184541631027099,"195":-0.14169815373969308,"196":-0.0013007501373868337,"197":0.070388617464045,"198":0.1643889904107168,"199":-0.13218378869408484}},{"sx":5,"sy":5,"depth":8,"w":{"0":0.17550007409005877,"1":0.18718865746481936,"2":-0.2313528706681143,"3":0.05525040213598975,"4":-0.27012060063521487,"5":-0.22255151186307146,"6":0.1807579069890535,"7":-0.3178835421168899,"8":0.5891583559956444,"9":-0.21573154592619326,"10":-0.46821411493095966,"11":-0.014504985462553983,"12":-0.108077794701749,"13":-0.4465147677697326,"14":0.1847676956719911,"15":-0.0008332583035766143,"16":-0.040061327114805506,"17":-0.07350584927585532,"18":-0.2890504328338824,"19":0.06088774126532233,"20":0.00985100280714528,"21":0.2288544606698636,"22":0.11528103335032515,"23":0.04907900386265099,"24":0.1796355334818364,"25":0.08973059399312389,"26":0.27655693471898635,"27":0.026122052591504002,"28":0.1232260892589687,"29":0.44687492359770287,"30":-0.2486366915027783,"31":-0.18853371903376204,"32":0.19795216519232753,"33":-0.05896088050218611,"34":0.43804512912291815,"35":0.07269215052068,"36":-0.4642687179660046,"37":0.08442325173081379,"38":-0.06613466625599912,"39":0.07515359705128788,"40":-0.2575580445426827,"41":0.3086822470540782,"42":-0.21507580348520197,"43":-0.1626957290397971,"44":0.20510754451684501,"45":-0.08734267018726384,"46":-0.016612869473557574,"47":-0.37007713920806806,"48":-0.4649787289206444,"49":0.060065055691836185,"50":-0.09577388520266925,"51":-0.24141454753372693,"52":-0.09688848499291143,"53":-0.33765709055695203,"54":0.24016872383727722,"55":-0.18790292842536113,"56":-0.5899755981199251,"57":0.15156412422344953,"58":0.35340999466649226,"59":-0.1657511164619647,"60":0.30945180623546237,"61":0.036683020268172356,"62":0.11382648310336932,"63":-0.17144311813705118,"64":0.05904735151756332,"65":0.3239328575629201,"66":0.5962676659320738,"67":0.18383566239657154,"68":-0.4778142413892085,"69":0.20594540412957096,"70":-0.19162128073002122,"71":0.05493700783199592,"72":0.18408203327691788,"73":-0.032499244055388746,"74":0.2038013281074227,"75":0.46908622864568966,"76":-0.28851989264023564,"77":-0.1417612367716124,"78":-0.060573250906730595,"79":0.26055899486054274,"80":-0.2940190331998841,"81":0.005444186053236318,"82":-0.044695808109096964,"83":-0.45210062793071615,"84":0.011022785760740558,"85":-0.13190269118032127,"86":-0.0042551789811500875,"87":-0.3051631955289119,"88":-0.36931590403457687,"89":0.13364770620814603,"90":0.1116142872960787,"91":-0.07458941177054662,"92":0.3646449798057167,"93":0.016169227363411087,"94":0.18477483670987657,"95":-0.4846856633381211,"96":-0.10656751866343267,"97":0.14448607274678973,"98":0.19026213925158872,"99":-0.6359584074884614,"100":0.08995247023084156,"101":-0.026045283599785918,"102":-0.263216223930847,"103":-0.31161952918675123,"104":-0.030527905112925732,"105":0.2551618876530935,"106":0.2961308232071697,"107":-0.2885593331608483,"108":0.20589160565261097,"109":-0.2668248420570613,"110":-0.25830591324405705,"111":0.14818636340444105,"112":-0.04850907041572609,"113":0.1417104780362218,"114":0.008648217927997467,"115":-0.08573545454490385,"116":0.32846318625110726,"117":0.10421206274830602,"118":-0.4165298590202612,"119":0.1853895576685414,"120":0.16689515206342215,"121":-0.08476337239160173,"122":0.2348952733887869,"123":-0.22000855962877527,"124":-0.07523053615177042,"125":-0.07586914968450503,"126":-0.12110448485708648,"127":0.005220455589868487,"128":-0.1675024929277672,"129":-0.04824459260289815,"130":0.021050477937501942,"131":-0.21958107171826272,"132":0.08629347070495724,"133":0.1065063304040562,"134":-0.11163885918224682,"135":-0.11413261704894334,"136":0.030197132448749733,"137":0.25789465850408955,"138":0.32068954956121065,"139":-0.5228539997285725,"140":0.03103502816411926,"141":-0.22058480114397844,"142":-0.4599156170994669,"143":-0.262867826697153,"144":-0.19997996287904188,"145":0.1932424432517451,"146":0.14907169348643334,"147":-0.25161282531314483,"148":0.13815704443815832,"149":-0.18217102528454734,"150":-0.21230162994117233,"151":-0.06342834299403738,"152":-0.48232592461546847,"153":-0.05850898036643015,"154":0.34100625350514885,"155":-0.07544403279005114,"156":0.30706488135425813,"157":0.20079723327772495,"158":-0.034861686696664236,"159":-0.33074904596187416,"160":0.21578642182287686,"161":0.08314978555863582,"162":-0.3233981541281634,"163":0.07887444708558183,"164":-0.13377621135881834,"165":-0.1555024225724681,"166":-0.13896091626804824,"167":-0.10806995539418268,"168":-0.23226618730755186,"169":-0.30200302394287193,"170":-0.20038999664702312,"171":0.15679574132895738,"172":-0.09650475786419244,"173":0.026651782828668313,"174":-0.056790697801975966,"175":-0.21893696772377266,"176":-0.042260200881386295,"177":-0.1596658868277584,"178":-0.1845328418278409,"179":0.01012555060418859,"180":-0.2719088166600488,"181":-0.09511059444865569,"182":-0.11507911244571692,"183":-0.028294094258976676,"184":-0.2665513053715556,"185":-0.15941733869068397,"186":-0.11533536594859162,"187":-0.07945139799404724,"188":-0.01274956522348052,"189":-0.00020092196661185648,"190":0.223246160680566,"191":0.17439881169870225,"192":-0.08964360909666394,"193":0.08591853666326302,"194":0.3372988465451745,"195":0.13772451821391818,"196":-0.11240710045747768,"197":-0.25497957417120737,"198":0.1620957957831436,"199":-0.12036510223617736}},{"sx":5,"sy":5,"depth":8,"w":{"0":0.11241783051042219,"1":0.013266789541805312,"2":-0.013946315245428872,"3":-0.05756434674829446,"4":-0.1818238957398595,"5":0.032071694078386954,"6":-0.08712268884782189,"7":0.05659382245639893,"8":-0.02184860835808931,"9":-0.22192535802025204,"10":-0.047043047801226714,"11":-0.017699328828658642,"12":-0.42608537013590136,"13":-0.17764361940222367,"14":-0.11629404078612095,"15":-0.32475453280256383,"16":-0.12659383635713134,"17":-0.1473511370547723,"18":0.0005558210762808195,"19":0.06279151088223554,"20":-0.4764736562000858,"21":-0.0492808341865982,"22":-0.059809186853516584,"23":0.05085996822064948,"24":0.13484500284831716,"25":-0.128647803863911,"26":0.15326959378490537,"27":0.10756046351557488,"28":-0.35758940199709827,"29":0.2972462397991207,"30":0.07005952267993806,"31":-0.10564784459686972,"32":0.20193108280089409,"33":-0.056170986487900844,"34":0.12864848633878895,"35":-0.03984185215385272,"36":-0.017534958042237467,"37":0.1443574606272259,"38":-0.13553042268835508,"39":0.17656163759747392,"40":-0.2521031291039951,"41":0.2545121541834681,"42":-0.16739395018731446,"43":0.00031123519808323556,"44":0.5135883171477955,"45":-0.24216313507087242,"46":-0.42237001059579543,"47":-0.11747048790289419,"48":-0.3865967111439796,"49":0.29279538076973455,"50":-0.03871284241475163,"51":0.06185610978219855,"52":0.015460953469544944,"53":-0.42831439690546186,"54":-0.36911530060860553,"55":-0.13788842848753483,"56":-0.4338599972676322,"57":-0.09883090695907443,"58":-0.19748174900869006,"59":-0.16305757792080275,"60":-0.06592986476878365,"61":-0.19512576378261207,"62":-0.14866730549357657,"63":-0.32664721146577314,"64":-0.22890056211416246,"65":-0.12014131780466038,"66":0.1296931090769537,"67":-0.41202957062683615,"68":-0.33255409980576583,"69":-0.2766889038362599,"70":0.16794697551590723,"71":-0.13989668273119488,"72":0.07881835134992267,"73":-0.2825533323474779,"74":0.26429103888650585,"75":-0.20437578235795523,"76":-0.3523978926318459,"77":0.18634376200046063,"78":0.029340677186550625,"79":-0.03281113848250398,"80":0.03274406266830864,"81":0.45609394609997533,"82":0.03336689680559744,"83":-0.02723052465053556,"84":0.4595357059462136,"85":0.027689490930186786,"86":0.028419132537795544,"87":-0.0739332227864075,"88":-0.23349486047017243,"89":0.24971815445801512,"90":-0.2616222858192143,"91":0.10333784362632782,"92":0.17222337696819853,"93":-0.048273584830432086,"94":0.18349117028124545,"95":-0.1040687486815245,"96":-0.2702949731728347,"97":0.015320714414840411,"98":-0.7412063975482894,"99":0.08967194968627636,"100":0.10423957244691424,"101":-0.22361772710512767,"102":0.23060938709192394,"103":-0.2386429116176419,"104":-0.06808373506801707,"105":0.0162932137038565,"106":-0.5595018823316816,"107":-0.054535233209708996,"108":0.038573195774561364,"109":-0.41613034950182554,"110":-0.17144933589971,"111":-0.21136140894493552,"112":-0.09022873050307047,"113":0.20555355449634644,"114":-0.4848076085154936,"115":-0.5733485528108805,"116":-0.2695759746145138,"117":-0.22343808451756034,"118":-0.14401026583172447,"119":-0.35189421871232185,"120":-0.030998853233715984,"121":0.00150506536988335,"122":0.41128190840049333,"123":0.6371272099391793,"124":0.18544243956285833,"125":0.1575581253434122,"126":-0.09625408762001103,"127":0.33428978085706584,"128":-0.16670526278983605,"129":0.33387739101682085,"130":0.004490283765433223,"131":0.341800978990333,"132":-0.0791840941350379,"133":0.06575983934068863,"134":-0.03365523841229166,"135":0.035103491079331015,"136":0.3614261954298577,"137":0.0943585417439477,"138":-0.000013295306621104565,"139":-0.011865908594043654,"140":-0.010864739414766667,"141":0.1393501289436519,"142":0.4039676795575836,"143":-0.03895516043980045,"144":0.14744640388889588,"145":0.14608590923784404,"146":-0.03750213239236461,"147":0.15057292805194958,"148":0.10174716798626533,"149":-0.1529997676113328,"150":0.3118603095781093,"151":-0.19422808138874081,"152":0.21248234759101955,"153":0.21350484237039036,"154":-0.2480867896311388,"155":0.05859735544212381,"156":0.2844797125511189,"157":-0.4671002383381481,"158":-0.19288715732119444,"159":-0.07317821946736326,"160":-0.1396235564003029,"161":0.2599516588073719,"162":-0.45765914333600616,"163":0.3443219157986994,"164":0.12489553917151427,"165":0.1506979420248152,"166":0.0903734852633144,"167":0.03696079907379775,"168":-0.29642414456683525,"169":-0.13942633395574397,"170":-0.08459690711408752,"171":0.18837566789702623,"172":0.07516644240929048,"173":-0.2405368639154492,"174":0.09993430394420914,"175":-0.010463127915535633,"176":0.4555233343880615,"177":-0.17460430032523103,"178":-0.2167345016747752,"179":0.29779094013146,"180":-0.2777952287590422,"181":0.1870645360705825,"182":-0.12247218603767307,"183":0.35729918650054937,"184":0.21879655336207907,"185":0.04195812937382334,"186":-0.09471795991227261,"187":0.12063410302787753,"188":-0.30752030654679857,"189":0.0883604146451828,"190":0.33117727011095194,"191":0.3985747423172783,"192":0.19967064182044494,"193":-0.06431338156090914,"194":-0.07067590357426647,"195":0.1463799782927426,"196":0.20610598304145955,"197":0.18248562119887848,"198":0.32690050538769955,"199":-0.22078752514041214}},{"sx":5,"sy":5,"depth":8,"w":{"0":-0.16825247483489728,"1":-0.002821842737209636,"2":-0.0575324251939241,"3":-0.31285211906243293,"4":0.06151202207017111,"5":-0.23807948180885338,"6":-0.23301200562734664,"7":0.05286439427746788,"8":-0.18441308847194704,"9":-0.10758432876139903,"10":0.06452027453885481,"11":-0.22228548098021678,"12":-0.01695294763344901,"13":0.022142901899943782,"14":-0.028818311529923177,"15":0.033238291404160535,"16":-0.11504064652044155,"17":0.018759169746569427,"18":0.04346534594402093,"19":-0.06963491198761432,"20":-0.003925019950356517,"21":0.08645238459853395,"22":-0.2683309981267314,"23":0.008794063304248634,"24":-0.12351655266984668,"25":-0.19517977715350288,"26":-0.0718021845504418,"27":-0.2391956484736772,"28":0.15666615227353756,"29":-0.24221300834136164,"30":-0.39968729752229465,"31":0.1595196315182187,"32":0.20461545961727184,"33":-0.02437977614694203,"34":-0.07562800888031555,"35":0.07102741291591233,"36":0.015240943579923791,"37":-0.005524827778011187,"38":-0.5532878852263287,"39":-0.18856369178684598,"40":0.10143070921174277,"41":-0.24640583449037445,"42":-0.008050080086901336,"43":-0.3633005662750619,"44":0.01077082384567762,"45":0.0690215506571857,"46":-0.29852665456283967,"47":0.20068124410559426,"48":-0.2216894542679208,"49":0.001402876580373019,"50":-0.16397638079984844,"51":-0.19496715619374994,"52":0.09247223571465664,"53":-0.03972787105978659,"54":-0.30361932646634743,"55":0.17426780298808875,"56":-0.038410819915752265,"57":-0.27380841919523785,"58":-0.10809400567200346,"59":0.07057833007456815,"60":-0.00010976690402156796,"61":-0.05144135090529245,"62":-0.37857493236345846,"63":0.09771334275089447,"64":-0.06146768959463331,"65":-0.13628657457719684,"66":0.029874989823307385,"67":-0.008130407944170772,"68":-0.17092854317572967,"69":0.10927321700636687,"70":-0.18241331173425968,"71":-0.15600666855970685,"72":-0.05307770788737814,"73":0.010351523285923541,"74":-0.00631066821965018,"75":0.17852481277185797,"76":0.19690352874078235,"77":-0.0765567696815423,"78":0.015882085910960565,"79":-0.30045380657781595,"80":0.17290787108973324,"81":-0.3369697119762068,"82":-0.17964508604687382,"83":-0.10527033151527095,"84":0.03328905622738542,"85":0.060238675512831796,"86":-0.2933135117998121,"87":0.3151253695745562,"88":0.13115165928066672,"89":0.0176752480986842,"90":-0.22211221745771456,"91":0.18816280745408048,"92":-0.0065377386925847885,"93":0.16948956223810305,"94":0.1205254148093278,"95":0.11512605386921661,"96":-0.08429926369114654,"97":-0.06229319869199912,"98":-0.05054077733322966,"99":0.31979733409672256,"100":0.25532255223919026,"101":-0.18800160673810073,"102":-0.003189772825971401,"103":0.14483624892090877,"104":-0.12092589470940698,"105":0.24631325103231255,"106":-0.12839768107933447,"107":0.1308242790645705,"108":0.23054027553545733,"109":-0.15055105539230143,"110":0.05944223487066692,"111":0.09033771777487964,"112":0.2125247082083242,"113":0.10907500765743473,"114":-0.20978883912594015,"115":0.3752829882182514,"116":0.30589949337945194,"117":-0.11139998332152254,"118":0.003197478936072937,"119":-0.00712550880458445,"120":0.007012676291719916,"121":0.08331344628643109,"122":-0.3163642095005034,"123":0.0023609508719535568,"124":0.18951640321595803,"125":-0.10584660953433332,"126":0.06885585067179008,"127":0.07602179165970883,"128":0.04726736817344094,"129":-0.3503602798666269,"130":-0.17021287719191458,"131":-0.12006608789552554,"132":-0.05353592866520451,"133":0.19278754096669726,"134":0.08525038933721094,"135":0.06688969918500956,"136":-0.11048866083974643,"137":-0.21683808580568836,"138":-0.09533769592548064,"139":0.062092857205430445,"140":-0.4333629723824627,"141":0.06311861226665814,"142":0.0845963464328249,"143":-0.17211489909453967,"144":0.25058766666546767,"145":-0.14080871784176682,"146":-0.13259595279948916,"147":-0.04259770641695104,"148":-0.27787170101462316,"149":0.024988868603861913,"150":0.22230666954819925,"151":-0.09294191202501553,"152":0.018084411314638,"153":0.18220219786585765,"154":-0.017878271542794748,"155":-0.007307808932466155,"156":-0.07755342414067329,"157":0.19055922399195344,"158":0.13169067922343963,"159":0.4682753667391287,"160":0.13215431591845953,"161":-0.3592018614857677,"162":0.13149724822670383,"163":0.0809097734917944,"164":-0.16276219184457505,"165":0.19627267564805345,"166":-0.0863127812556567,"167":0.18138368322132212,"168":0.3242879802413344,"169":0.11492225461417284,"170":0.220115352839793,"171":0.19040138903146006,"172":-0.3572625408631735,"173":0.10303045065541773,"174":0.14186051028212476,"175":0.21732607787102773,"176":-0.20002106214952245,"177":-0.01711809947094055,"178":0.006182425780234168,"179":0.14524771150546198,"180":-0.2619641518554105,"181":0.10007705863728322,"182":-0.16288717118985155,"183":0.04972449321959217,"184":0.023935086945129764,"185":0.07289585619524848,"186":0.0231517062715938,"187":-0.0025834781050984106,"188":-0.14411200681310452,"189":-0.16276455837337547,"190":0.2574754296440512,"191":-0.07139136613778639,"192":0.15225578496908218,"193":-0.03276261843934736,"194":0.1832974399152082,"195":-0.058627835138380824,"196":-0.13153695135191693,"197":0.20485805920874292,"198":0.13318765503905736,"199":0.10723140645274719}},{"sx":5,"sy":5,"depth":8,"w":{"0":-0.2572644308653222,"1":-0.2691726672848733,"2":-0.2511646228076759,"3":-0.09580530707818116,"4":-0.200806967015878,"5":-0.100207338515315,"6":0.07765510601059193,"7":-0.009290051576325283,"8":0.1024106849511567,"9":-0.22372656932641416,"10":-0.1414678228463576,"11":0.09424302982917092,"12":0.14648534936649918,"13":-0.12402733782931508,"14":0.06707885785095145,"15":-0.6803514538517265,"16":-0.23919713995146674,"17":-0.10869131344844742,"18":0.01509569172113493,"19":-0.11242346903199171,"20":0.06861696507138805,"21":-0.22949920806967722,"22":0.3224245194651813,"23":-0.06198673237111086,"24":-0.15102158025217588,"25":-0.006614632423758615,"26":-0.16768060878259153,"27":0.06440155416615528,"28":-0.19027546175840324,"29":-0.2559848057792293,"30":0.3275285546906442,"31":-0.12829823878304478,"32":0.20237870729990443,"33":-0.2095036594655119,"34":-0.4176365098060476,"35":0.11184182226646776,"36":-0.2846594832705431,"37":-0.3486008825214496,"38":0.30337417980411135,"39":0.05854324054355044,"40":0.2824348771047464,"41":-0.23095492294079065,"42":0.19012235244620881,"43":-0.03221697997531387,"44":-0.33292261478337887,"45":-0.0025077339185868098,"46":0.2502536662546851,"47":-0.01722975279757328,"48":-0.04187981981683331,"49":-0.30525356775343354,"50":0.0257703022796106,"51":0.1581202653645673,"52":0.051675331554284686,"53":0.07570376904615347,"54":0.24235818758600478,"55":-0.057715188888840974,"56":-0.04278725239146414,"57":0.0021739808782205382,"58":-0.23433527473359347,"59":0.0790570775305001,"60":0.25451240264550445,"61":-0.28018247973697136,"62":0.3956498826239933,"63":0.24531937234754334,"64":-0.32583146213418046,"65":0.25129324276626147,"66":-0.5978977901038318,"67":0.22687870629508636,"68":0.18701818381108626,"69":-0.5132107338298886,"70":0.059322311138945955,"71":-0.1863462152190442,"72":0.030004423400866276,"73":0.3997351591279628,"74":-0.3889805586936646,"75":-0.04634097096910795,"76":0.5368665906758043,"77":-0.5971546481281641,"78":0.14059377895112146,"79":0.07789411993131919,"80":0.2746654341738771,"81":0.054341465354119725,"82":0.3635923131044327,"83":0.11979180214321394,"84":0.08234329618836188,"85":-0.23171718669095914,"86":0.09142093321812447,"87":-0.23491067533232876,"88":-0.2070502242056198,"89":0.13090059653125222,"90":0.11568926992396385,"91":0.189386046707761,"92":0.1486807175051966,"93":0.3932961159042575,"94":-0.2905369528352182,"95":0.21048978036799498,"96":0.18512234108234607,"97":0.02430858134226531,"98":-0.2530064277290308,"99":0.07011906151147308,"100":-0.004113873092155491,"101":0.3019085009620765,"102":-0.18178741423397238,"103":-0.00935763041439159,"104":-0.1222327749246836,"105":0.062255366824750843,"106":0.02158553316525507,"107":-0.1506801426782097,"108":0.0661506000104377,"109":-0.17174232379660814,"110":-0.11143956893142276,"111":-0.08791486386708126,"112":-0.011208975289413836,"113":0.048619673375673696,"114":-0.23804127381053797,"115":-0.12445656692285187,"116":0.14827436343567263,"117":0.18730800911177564,"118":0.04428005043419258,"119":0.18966506233279098,"120":0.09902872609035852,"121":-0.12368603030176614,"122":-0.016910214989676122,"123":0.009474526244649813,"124":0.4993378308203781,"125":0.17999123874218043,"126":-0.21070385675093686,"127":0.16388441923188127,"128":0.003423863724959261,"129":-0.06737664853259645,"130":0.05963589612974706,"131":0.021007660162264543,"132":0.14203825808045256,"133":0.4573245294719655,"134":-0.3903946072228618,"135":0.1434541398848291,"136":0.10855022682143062,"137":-0.1295694397152434,"138":0.20551201580699865,"139":0.14566397573046808,"140":-0.18818172023023932,"141":0.0581333529326704,"142":-0.4220763781788666,"143":0.12646661028408626,"144":-0.17080660381916837,"145":-0.024621624917454378,"146":0.08555301331535671,"147":0.0978121483809391,"148":-0.10755145671785221,"149":0.11475920120602852,"150":0.1713866404544396,"151":0.035159467236488655,"152":-0.11694060068387613,"153":0.3291600613602817,"154":-0.0008135025603679368,"155":0.08445912059355291,"156":-0.0024872261241549827,"157":-0.050229214719641445,"158":-0.009004778351289456,"159":0.07004127427318983,"160":-0.006303898413687962,"161":-0.0632887325113895,"162":-0.374293784419425,"163":0.25935340305894866,"164":0.061898131348521526,"165":0.19029740522373692,"166":0.037742393314624104,"167":0.08364042680078806,"168":-0.00671953098658315,"169":-0.0778204004112032,"170":0.09213275019730273,"171":0.5421202901407138,"172":-0.0412624662088583,"173":0.05583676690213741,"174":-0.32352620886979544,"175":0.1516339141490943,"176":-0.11688412549056193,"177":0.06635763850598013,"178":-0.006335383546079141,"179":0.23291007604345584,"180":-0.031595108071012644,"181":0.18717353371639864,"182":-0.10153894956234812,"183":-0.3613780835290123,"184":0.06237060689557898,"185":-0.027002516973094016,"186":0.1472093873520082,"187":-0.12615750273341117,"188":0.044572705510623575,"189":-0.061299669746686214,"190":-0.09562603882247872,"191":-0.2870029436081019,"192":-0.11911042439891835,"193":-0.07116298570539199,"194":0.3547131770392623,"195":0.2443950040644189,"196":0.08208115967384916,"197":-0.1816982777930854,"198":0.11455120213383457,"199":-0.02689335157163701}},{"sx":5,"sy":5,"depth":8,"w":{"0":0.04096676207197539,"1":-0.19470070858791522,"2":-0.03669975542741141,"3":0.052043376582823625,"4":0.2231952476481281,"5":-0.02040079317179158,"6":-0.19678642461597987,"7":0.0636830747280617,"8":-0.2660348680753935,"9":0.178824688379729,"10":0.10994470775900758,"11":-0.10882024396527441,"12":0.2779239420274683,"13":0.02321446629249246,"14":-0.09622086634362698,"15":-0.023647599890751603,"16":0.07428290878880002,"17":0.08830642374627323,"18":-0.06105799513718047,"19":0.10182748194585536,"20":0.39550887523191147,"21":-0.24276999459358586,"22":-0.2583527000012135,"23":-0.20752687418921106,"24":-0.04078997485936377,"25":0.5074769809448747,"26":0.15579667089961527,"27":0.056124525944428655,"28":0.4592691954480321,"29":-0.07519659633339534,"30":-0.14706597456608847,"31":-0.2980112704988587,"32":-0.27385767432682145,"33":-0.10456049612335136,"34":-0.22469805536476284,"35":-0.16870979322536583,"36":-0.022581480528612793,"37":-0.19473017468220793,"38":0.00589999128313547,"39":0.01853185172030944,"40":-0.048214534184409,"41":-0.06002994176395714,"42":-0.3443210451790019,"43":-0.3019910724811434,"44":0.06391532808634204,"45":0.07685556876868802,"46":-0.0925161716197429,"47":0.24331927186988223,"48":-0.1039878604008692,"49":0.1277425878931055,"50":-0.08511976613360166,"51":-0.042279052011711386,"52":0.1741047500100707,"53":-0.0032037737632127695,"54":0.2247295245547886,"55":-0.2613327432975072,"56":-0.04764126817338577,"57":0.2685130967287502,"58":0.027334228846928148,"59":0.1374452386472903,"60":0.09705830676383868,"61":0.27702830972806153,"62":0.14502611799827797,"63":-0.24250006283152287,"64":-0.34220672115464645,"65":0.3507669387598455,"66":0.2096753229603584,"67":0.22348747688213946,"68":0.024700846821563382,"69":0.19236998999480842,"70":0.04409069780269717,"71":-0.37527570874424904,"72":0.06396281822473035,"73":-0.1289923292795887,"74":-0.15208387075423038,"75":-0.2822301477358383,"76":0.15261955902759688,"77":-0.04192619159011219,"78":-0.03807117095541631,"79":0.19197074519025215,"80":0.012161546785821493,"81":-0.04182228763228875,"82":0.26616202920504156,"83":0.3364781003895542,"84":-0.2838455853257389,"85":-0.12148809347350027,"86":0.31638804812872723,"87":-0.10294939884087302,"88":-0.060216675728612994,"89":-0.018235061653103957,"90":0.014303372602169975,"91":0.04745397404378538,"92":-0.10443476532049546,"93":0.18533865114459863,"94":0.05285829880464933,"95":-0.6110965793153412,"96":-0.12403158691961895,"97":0.1613671687669305,"98":0.21482864681114128,"99":-0.28137813677881884,"100":-0.37457758819830184,"101":0.01576613696612732,"102":0.2466220284151744,"103":-0.3065866069987456,"104":-0.2733001266773443,"105":-0.009273017399853855,"106":0.2680772347658405,"107":0.12384261054822311,"108":-0.10736442869636013,"109":-0.21732345836258798,"110":-0.09059462986411705,"111":-0.01037161057509542,"112":0.23650731798443989,"113":-0.09820968027019526,"114":0.170604514832379,"115":-0.1501946827058528,"116":-0.270736254471682,"117":-0.27859169170301507,"118":-0.018137250589370192,"119":0.5422096573583024,"120":0.3686943947382665,"121":0.08647344723939603,"122":-0.31116256680816295,"123":0.16338690708037218,"124":-0.034644831908980676,"125":-0.2643514422639346,"126":0.15356477795943782,"127":0.00907056012378439,"128":-0.2573392386826334,"129":0.0680028238274582,"130":-0.05947248942774465,"131":-0.3559378819688923,"132":-0.17466535024909194,"133":-0.05556074115057443,"134":0.11739322750361221,"135":-0.23279602687477544,"136":0.10094709610017175,"137":-0.009604011821925586,"138":0.07407801611785639,"139":-0.26341178640132923,"140":-0.09394744031754644,"141":-0.5051908823362143,"142":-0.17792303368533963,"143":-0.05021257714904875,"144":0.0583171380584118,"145":-0.006769803885357058,"146":0.039602862586244104,"147":-0.23902911761953696,"148":-0.05896352475611919,"149":-0.09671325816354268,"150":0.0821440140730864,"151":0.36645951254477743,"152":0.06302952873065279,"153":-0.24734713567732936,"154":-0.0038156069124084375,"155":-0.0849962422077292,"156":-0.08367145654256779,"157":0.1905618357506737,"158":-0.2407766740021997,"159":0.13327580288848526,"160":0.5304296921217523,"161":-0.057779861540048806,"162":-0.05198280766171129,"163":0.1895556318459633,"164":-0.41623544439424964,"165":0.10423930976988104,"166":-0.04174858367868248,"167":-0.11370393694568665,"168":-0.046771676986075775,"169":-0.24352842685545878,"170":-0.3437130525393047,"171":-0.2380510774509501,"172":-0.1910934560981501,"173":-0.2032192317770806,"174":0.17687951793536735,"175":-0.21985447482180684,"176":0.1638031093737209,"177":-0.3115698420242411,"178":-0.1631408189466485,"179":-0.011261361775988426,"180":-0.11585124662453841,"181":-0.18981616583718028,"182":0.15954666937423792,"183":0.044446975577851294,"184":0.369192518557873,"185":-0.13368601883566034,"186":-0.36989047179844203,"187":-0.210100135317476,"188":0.03608751582893538,"189":-0.6935763313957584,"190":-0.6327082786326977,"191":0.5743452982451861,"192":-0.45096404074805435,"193":-0.25069056667298134,"194":-0.19280939512567322,"195":-0.13930450138213069,"196":-0.22860324107473823,"197":0.11362059856001355,"198":-0.5355491662903742,"199":0.4017162184654973}},{"sx":5,"sy":5,"depth":8,"w":{"0":0.018523133843571446,"1":-0.13678906411221411,"2":-0.20791611951755273,"3":0.38690013706354637,"4":-0.1535610635459017,"5":0.14667502228035273,"6":-0.00803750969271955,"7":-0.11089699908404549,"8":0.1726736858032382,"9":-0.0766712576870999,"10":0.16210379070390885,"11":0.36445420715030447,"12":-0.10682147184535087,"13":-0.22067122105938458,"14":0.2087444861988958,"15":0.43521318757020694,"16":-0.05174899794153721,"17":-0.05171923249402588,"18":0.06889117304151314,"19":0.24438580493814036,"20":0.24717488685523906,"21":-0.09658588776803995,"22":-0.26088575336764247,"23":0.2826828517250106,"24":-0.16729236133470274,"25":-0.016746535458005068,"26":0.12242827770584377,"27":0.14336990840043679,"28":0.2948384241436362,"29":-0.09486005539328128,"30":-0.012239962060448693,"31":0.21949870905506577,"32":-0.2370361432678622,"33":0.4687082422111574,"34":-0.08829819976101842,"35":0.266721070285329,"36":0.29914139973741233,"37":0.250493951163436,"38":-0.21594948761840646,"39":-0.0129876791588682,"40":-0.2567468380136352,"41":-0.07049423680612363,"42":-0.20232542241531537,"43":0.16303625015303716,"44":-0.31178252083675234,"45":0.14788914127355682,"46":0.15064036914097642,"47":-0.07050842973891958,"48":-0.24054237467683048,"49":-0.19172628824179044,"50":0.008327414372817896,"51":0.08754145276874001,"52":-0.1443359094413852,"53":-0.017190333846896746,"54":0.020716234611390726,"55":-0.11643263670968979,"56":-0.08923520802243072,"57":0.0010781453608305468,"58":-0.019580941577944523,"59":0.03352895221388073,"60":0.08370545457004931,"61":0.01719139465733633,"62":0.04291225949361839,"63":-0.1475980143429537,"64":-0.3514919420944902,"65":0.044665343326943024,"66":-0.29946072268430063,"67":-0.02365549140349268,"68":0.04861031539292659,"69":0.25921782419803363,"70":0.06896588032447148,"71":-0.22928945223767977,"72":-0.22773809114549012,"73":0.1078278092465504,"74":-0.06046647068164638,"75":-0.15963061461983602,"76":-0.009237430668180157,"77":0.6449426021535855,"78":0.2893039056285504,"79":-0.37496802396051926,"80":-0.41257437741182995,"81":0.09788476285426245,"82":0.03873337052491384,"83":-0.1918310791333071,"84":-0.09922396158874787,"85":-0.299464120047906,"86":-0.5050777365025271,"87":-0.4289545279393977,"88":-0.40809313057572544,"89":0.19918259124111123,"90":0.01600846342630337,"91":0.1294399018925305,"92":-0.12259357010576309,"93":-0.34123571185273366,"94":0.3218247792248261,"95":-0.018177539710900564,"96":-0.4396095037867545,"97":0.2289401714187253,"98":0.18817846975688185,"99":-0.27334065676675734,"100":-0.16208958602827903,"101":0.06587029524955638,"102":0.03231147950753059,"103":-0.3513365488675426,"104":-0.2027338800059341,"105":-0.14632226528157802,"106":0.3501648384254464,"107":-0.10697839752890406,"108":-0.3042285547093993,"109":-0.1883953557519551,"110":-0.028030444433254247,"111":-0.025567717724707787,"112":0.07749312556498839,"113":-0.24311805443432444,"114":0.16062322338350876,"115":0.3120931846387971,"116":-0.5833755117632804,"117":0.10401066665721494,"118":0.1737537121849777,"119":0.1656753369220225,"120":-0.3259427650925015,"121":-0.1822394188960395,"122":-0.1457626090142793,"123":-0.05533610772668471,"124":-0.0708881775647632,"125":-0.3724416735426947,"126":-0.09880028075012909,"127":-0.14564030368410527,"128":-0.2206641594039305,"129":0.07692986908727083,"130":-0.19190818583808025,"131":-0.2041032326047209,"132":0.24666884565277067,"133":-0.1465007485164229,"134":0.0985575379507413,"135":-0.1312227773383418,"136":0.08186503465712064,"137":0.04687629755385553,"138":0.21520275925415158,"139":-0.3174400329267483,"140":0.3307225811581507,"141":-0.17202633385077556,"142":-0.13117777927193233,"143":-0.20612457071897067,"144":-0.1064801399340511,"145":0.19673992593417783,"146":0.05473262133330876,"147":0.03069704965089741,"148":0.38629655977749716,"149":-0.17611940056037287,"150":-0.005089002711607953,"151":0.3436381464918366,"152":-0.14810752098866328,"153":0.09132542202995798,"154":-0.04948024545728067,"155":-0.16717433312735464,"156":-0.10781879663139202,"157":0.1443582412790687,"158":-0.3299766437074413,"159":0.3044145182896254,"160":-0.040133832918435176,"161":-0.20044312937200548,"162":-0.2306347732961887,"163":-0.19567911787286008,"164":-0.05906142606705829,"165":-0.11447481598397266,"166":0.10933807292142315,"167":0.3248991500597241,"168":-0.0031441084965685762,"169":0.023500640209296635,"170":-0.15470666065816144,"171":-0.0291480100476331,"172":0.03578659754058126,"173":-0.22813770994604776,"174":-0.1499295450182547,"175":0.23928037056050094,"176":0.022155294729955893,"177":0.14057896504313908,"178":-0.09353214340273854,"179":-0.060744525237929115,"180":0.0740955239449828,"181":-0.027864279554526434,"182":-0.3185808613136797,"183":0.21560117587158892,"184":0.02635558578886093,"185":-0.0911243129264806,"186":-0.11701398286205804,"187":-0.4524673554350267,"188":0.06906738689436256,"189":0.16864992805347448,"190":-0.013644645524452667,"191":0.08102276666104842,"192":-0.13096142235080968,"193":-0.2536366461423991,"194":-0.3107388360790689,"195":0.44054992397902193,"196":0.10285880520525945,"197":0.07794376180080373,"198":-0.09692012870853843,"199":-0.059791174757274294}},{"sx":5,"sy":5,"depth":8,"w":{"0":-0.4947410631516292,"1":-0.2260512348913036,"2":-0.36885352344131833,"3":-0.34426042180785815,"4":-0.28609009917288214,"5":-0.47090077738731995,"6":0.08881767106456123,"7":-0.32090056208000506,"8":-0.23679287676114022,"9":0.09854875487485798,"10":-0.27490956179877324,"11":-0.12379651956274121,"12":-0.12027541221179033,"13":0.0640674437179701,"14":0.26529035302860987,"15":-0.207577940074129,"16":-0.40438983830641223,"17":0.1996577388937643,"18":-0.25045949385222943,"19":0.2650482079510318,"20":-0.02176672405566594,"21":-0.0703257478846562,"22":0.37123457312971386,"23":0.08770584031208857,"24":0.18300629833999144,"25":-0.08975092659755599,"26":-0.294971384034153,"27":0.20638632483998967,"28":-0.1792503028220745,"29":0.12246313118558036,"30":0.3017578035963034,"31":0.06234947021368368,"32":0.3138328345349076,"33":0.1866953677799031,"34":-0.167531570689966,"35":0.1488290003290579,"36":-0.2026675067199472,"37":-0.007803767298962904,"38":0.3217214056274887,"39":-0.240565021298677,"40":-0.5694851780637933,"41":0.06983711550689271,"42":-0.3194634801152286,"43":-0.49150294868067645,"44":0.2195235218454991,"45":-0.31433992025509566,"46":-0.11050804217542022,"47":-0.4431717095748007,"48":-0.8114042925404985,"49":0.14406241310360182,"50":0.07259161006169225,"51":-0.28679516225464274,"52":0.10141002261457567,"53":0.027461945847385184,"54":0.0960922107445067,"55":-0.09782310586399685,"56":-0.4607628013839326,"57":0.1488111010742558,"58":0.23339618329761405,"59":-0.14712340159657822,"60":-0.27297292970798326,"61":-0.24579164141436377,"62":0.34544927841995005,"63":-0.03631707307696847,"64":0.030986363217379093,"65":-0.22259635858098228,"66":-0.027005633056982656,"67":-0.031848922399663346,"68":-0.5260587316930309,"69":-0.022165313383730914,"70":0.14846524286231155,"71":0.43412918724284105,"72":0.1532777753333724,"73":-0.344740252949875,"74":-0.25893722369073535,"75":-0.05793594685424941,"76":-0.2498170107366446,"77":0.4751199645686175,"78":0.5244917618255078,"79":0.6068050491739191,"80":-0.10298935327036507,"81":-0.11510145850583785,"82":-0.1617911543827416,"83":-0.19199877240240507,"84":0.18986869157123476,"85":-0.0746348130434577,"86":0.14173236253426047,"87":-0.3188420857213689,"88":-0.20190427087978494,"89":0.28048644589913957,"90":0.0723289600015375,"91":-0.2303485132784852,"92":0.44168623410573554,"93":-0.18766646231178824,"94":0.14494637265576807,"95":-0.4117861959538262,"96":0.05270998948396339,"97":0.27990493923084603,"98":-0.08054885761893878,"99":-0.28735150053376934,"100":0.5266616535759524,"101":-0.1264671639912886,"102":-0.17494468889138606,"103":-0.21391349182238548,"104":-0.1793776463964283,"105":0.07434458472092637,"106":-0.029818389614966394,"107":-0.3080862640159673,"108":0.15074929658456301,"109":0.08604481266328384,"110":-0.2717572145024441,"111":0.2932570222174122,"112":0.16275881059520161,"113":-0.02099391803480072,"114":-0.03110636524580518,"115":-0.15428520264608483,"116":-0.1374861551257707,"117":0.30118741712537556,"118":-0.1705897609080927,"119":0.029050455338834835,"120":-0.24883958255854216,"121":0.018095309496110552,"122":-0.11240495646063954,"123":-0.24286507909292382,"124":0.17194317941763548,"125":0.011163083433771728,"126":-0.1375697908680741,"127":0.08187629711471074,"128":-0.0740668517640909,"129":0.15474279526563733,"130":-0.049564673256846,"131":-0.05240292241460478,"132":0.2749166029040521,"133":0.053159863525956176,"134":-0.023831851550055395,"135":-0.030086820670460826,"136":0.214791256894717,"137":-0.02307054354658472,"138":-0.09963028371665936,"139":0.02721046361709113,"140":0.10449713957393009,"141":0.2599816102467017,"142":0.1799907841481597,"143":-0.3825452369032958,"144":0.13226054170274476,"145":0.20064015945325392,"146":0.15174621405803626,"147":0.19462178804662952,"148":0.2052286824854431,"149":0.030871961967275627,"150":0.002648301614677103,"151":0.028348932092818177,"152":-0.025146889896743883,"153":-0.08813759091792601,"154":0.26283159755961183,"155":-0.001661661498312635,"156":-0.2015884171735739,"157":-0.050832584038308336,"158":-0.3384917501399094,"159":0.3904196425819434,"160":-0.07580874752559176,"161":-0.09976666842872896,"162":-0.06405013378146357,"163":-0.48224794062497617,"164":0.2085244746514536,"165":-0.012845750855452339,"166":-0.21679817700136433,"167":-0.2551874438609237,"168":-0.224347423080085,"169":-0.29582814468312474,"170":0.20460324342508082,"171":-0.2754775450410041,"172":0.05948576432475401,"173":-0.18252861881098117,"174":-0.1311560851949565,"175":0.019433622873016657,"176":0.014220178606921006,"177":0.007892264985617332,"178":0.04453056253072412,"179":0.09404539221001607,"180":-0.08207059011885069,"181":0.04612565379538089,"182":0.08585344603650265,"183":0.03457436094208148,"184":0.05191436824281702,"185":-0.20389915883951482,"186":-0.02149234796727885,"187":0.11492182233907529,"188":0.12100868591895383,"189":0.2015294750206261,"190":-0.13283319269406213,"191":0.23176137251155216,"192":0.01955936151860344,"193":-0.017227768516071315,"194":0.07073307410756201,"195":0.07358245439887054,"196":-0.08073758084757875,"197":-0.482718663285534,"198":-0.23941112309000795,"199":-0.060131926141075945}},{"sx":5,"sy":5,"depth":8,"w":{"0":-0.04738171626031421,"1":0.250696460950419,"2":-0.056950813589019156,"3":-0.07299371468264146,"4":0.16490285699468363,"5":0.015080947179456445,"6":-0.039939355445244795,"7":-0.16726575093384644,"8":-0.25687581252106423,"9":0.09360379700116171,"10":0.1586339306418025,"11":-0.10352357033282111,"12":-0.4923227376845029,"13":-0.0419649374042427,"14":0.02736033300658659,"15":-0.1400928655931551,"16":-0.05065293649175765,"17":-0.013143103763307464,"18":0.19964467708223144,"19":-0.12854695164000163,"20":-0.08524851519114265,"21":-0.381317432610817,"22":-0.02917579152985909,"23":-0.03167735153174252,"24":0.050836343529657116,"25":0.09046625341091526,"26":0.3308952396093559,"27":-0.21903064446875667,"28":-0.03478885613668377,"29":-0.17800551566825618,"30":-0.026798155620423696,"31":0.4316940013086818,"32":-0.08208040170021377,"33":-0.1694092629377683,"34":0.2127084362041422,"35":0.055635968257513845,"36":-0.030975523649691153,"37":-0.09829098665963248,"38":-0.006389898965101696,"39":0.16182737605176564,"40":0.047545208858636175,"41":0.042454041197674736,"42":-0.15310743924664197,"43":0.4821423430369411,"44":-0.03075236009334661,"45":-0.35505059593544047,"46":0.02029225332897176,"47":-0.1874181211269806,"48":0.11799257258511821,"49":-0.016131257643101245,"50":-0.19306601106673452,"51":0.018741246406102693,"52":0.046586620898900116,"53":-0.08691217921547445,"54":0.2984449097117401,"55":-0.3612280307554013,"56":0.08506352726341958,"57":0.3477205623433149,"58":-0.10284076173341879,"59":-0.13768099261278977,"60":-0.18302884339003742,"61":-0.3668444185130182,"62":0.09668843118352932,"63":-0.17607270378764833,"64":-0.3050646056524395,"65":-0.15313685938027613,"66":-0.4139781067306186,"67":-0.12328596280403928,"68":-0.35300496972070294,"69":-0.23168778464532738,"70":0.19047266917329128,"71":0.3323481171218908,"72":-0.2902161376154763,"73":-0.414363766098425,"74":-0.3193206395998062,"75":0.11828881406451572,"76":-0.1468903807998648,"77":0.15359064009030476,"78":0.24622434566980467,"79":0.1817693489770487,"80":0.08526970506524484,"81":0.1564931206695666,"82":-0.05355102943029565,"83":0.5125904775889393,"84":-0.022892187411470637,"85":0.28628908426662847,"86":0.6827865252950354,"87":-0.08272316089690941,"88":0.22496747254225366,"89":0.20494266193691754,"90":-0.34872597047478276,"91":0.2932154940882759,"92":0.020353379719775334,"93":0.24526868264432444,"94":0.25822023739940597,"95":-0.14143065401437613,"96":0.13069573513584595,"97":-0.11593038922967082,"98":-0.29098586241561625,"99":0.04067253728916837,"100":-0.17020475805093302,"101":-0.2504076636772722,"102":-0.09472423180534957,"103":-0.11348898072966612,"104":0.005010695890981011,"105":-0.18656586930237,"106":-0.3769770670996789,"107":-0.34851399684960815,"108":-0.2545141342787539,"109":-0.3052853794126348,"110":0.3240682740843795,"111":0.3467986521260412,"112":-0.1989671418789385,"113":-0.2358058254003608,"114":-0.2568839917916759,"115":0.05591850348942651,"116":-0.5217941883980576,"117":0.18646304987262216,"118":-0.000005201903913579882,"119":0.19891580113910695,"120":-0.06479754936998419,"121":-0.3626471464262574,"122":-0.13973920398005382,"123":0.3349565427389734,"124":0.1438759456261369,"125":0.36386821678579473,"126":0.393455547015108,"127":0.3591665550359673,"128":0.38640799152768507,"129":-0.16166306586478343,"130":0.06793644547017275,"131":-0.23492266198823297,"132":0.021419237436642258,"133":-0.07934369633058448,"134":-0.08582587750629932,"135":-0.008460434932829714,"136":0.04159714171448192,"137":-0.04903562411357601,"138":-0.302372761009421,"139":-0.01112929538810275,"140":0.17697074823963255,"141":-0.34748581389813643,"142":-0.0033702667130031277,"143":0.02663318230300241,"144":-0.03394955264245275,"145":-0.3275606430812727,"146":-0.5322981790634944,"147":-0.2070515309223082,"148":-0.2804233462897911,"149":-0.4304383055416728,"150":-0.1529612687880063,"151":0.19968082146129512,"152":-0.050737029809286405,"153":-0.31676264411058525,"154":-0.5797780683995655,"155":0.14811629588138067,"156":-0.1619370979961847,"157":0.009421772457386388,"158":0.2844438156980465,"159":0.12320485364112052,"160":0.4003067789758743,"161":-0.3677953963682901,"162":0.03188143767388459,"163":0.026101775967836926,"164":-0.07903451395396519,"165":0.14940514246003167,"166":-0.09179213601424797,"167":0.0886713144005482,"168":0.06637037836299543,"169":-0.38862499395506633,"170":0.16504432154490897,"171":0.2847191089635411,"172":-0.26972290881319383,"173":-0.09909204009471863,"174":0.01877383654617231,"175":-0.11455938146905315,"176":0.12758549973858857,"177":-0.427319001276357,"178":-0.3223393616486205,"179":0.2932130752620889,"180":-0.2930843948936588,"181":-0.05367903945169851,"182":0.16508883624243462,"183":0.2531054756676284,"184":0.0976458172002274,"185":-0.06789951966175174,"186":-0.6825919313745997,"187":-0.11948414851132796,"188":-0.4861690614357616,"189":-0.14036508699173372,"190":0.4038795814347627,"191":0.21668543670195012,"192":-0.47448927432942734,"193":-0.35349629905919144,"194":-0.3946107794363777,"195":0.04526950567256002,"196":-0.2719109949717137,"197":0.06080529310043157,"198":0.10427303780002135,"199":0.04504831259109153}},{"sx":5,"sy":5,"depth":8,"w":{"0":0.060302024904377846,"1":-0.06463235435610418,"2":0.013750265895135333,"3":0.11567207143119515,"4":0.2834302795427136,"5":0.06336162836336297,"6":-0.5415134579160947,"7":0.1347958653390592,"8":-0.2970047504529648,"9":0.18946880747885775,"10":0.26272690985007496,"11":-0.1055319968673996,"12":-0.1371552011445392,"13":0.1669890565622026,"14":-0.25432599301255604,"15":0.15778333986708462,"16":-0.05537157808809695,"17":0.13514188161866603,"18":0.37721001714491037,"19":0.07172643626944739,"20":-0.29532783231892407,"21":0.005569890952489201,"22":-0.09673284386685396,"23":-0.06516178883198857,"24":0.014448152530609656,"25":-0.15631253031163586,"26":0.10448878580894107,"27":0.009535139158048638,"28":-0.29280001278854434,"29":-0.2404152915318176,"30":-0.05129232845572423,"31":-0.19299442777719278,"32":0.12094859118374522,"33":-0.013558495063802647,"34":-0.052577050875824025,"35":-0.20500050854666793,"36":-0.06841607225773129,"37":-0.19082616126914648,"38":-0.02421210310170909,"39":-0.27028823075684966,"40":0.13162841070277687,"41":0.04778322835529143,"42":-0.30431607266042876,"43":0.007566049610176985,"44":0.0657039078495178,"45":-0.10844280728354565,"46":0.12572843702526212,"47":-0.18931248736299025,"48":-0.4175289262317304,"49":-0.08273465533864947,"50":-0.03529427076308691,"51":0.13340938176715014,"52":0.07233590324631038,"53":-0.043396496656662606,"54":-0.2610336648827738,"55":-0.017703757744592707,"56":-0.16471683815557003,"57":0.2751123242932065,"58":0.06807457142753849,"59":-0.21616714335387802,"60":0.26214676606203585,"61":-0.0958007129478407,"62":-0.09911991101688626,"63":-0.21748521603934706,"64":-0.05047985000917964,"65":0.153621550312963,"66":-0.258724964587767,"67":-0.20872886178981714,"68":-0.3702700247699581,"69":-0.4250148686697561,"70":0.022063789833164107,"71":-0.23498068529656094,"72":-0.021859259483872892,"73":-0.26295132790741405,"74":-0.18579591635166118,"75":-0.236395612010572,"76":0.0757824585917153,"77":-0.24648291236627484,"78":-0.09674280495243824,"79":-0.10034254451352334,"80":0.31836555618724305,"81":0.288851622721425,"82":0.22351924880565,"83":0.027199575381243103,"84":-0.037729959555310236,"85":-0.025984691754466695,"86":0.1438549505508177,"87":0.1856184381607625,"88":-0.1199138417958013,"89":0.0472756944008659,"90":-0.0846467652483138,"91":-0.24440776439058373,"92":-0.035405194937888865,"93":0.41800267683233,"94":0.17632398389352558,"95":0.06036059009467276,"96":-0.03866541408500512,"97":-0.05973860973497926,"98":-0.2973782274854559,"99":0.18665327158601736,"100":-0.12486643840341764,"101":-0.05997829631434279,"102":0.2557366432623285,"103":-0.12555840357257841,"104":0.07408481409946584,"105":-0.040288925403996936,"106":-0.3875959477479258,"107":0.15012801153358796,"108":-0.14631132952830822,"109":-0.4294988801585668,"110":-0.15087846068751923,"111":-0.06497741849536133,"112":-0.01410126202025448,"113":-0.1154667726951769,"114":-0.2538992825358457,"115":-0.27362433715349643,"116":-0.10010033993339727,"117":-0.0983661556193691,"118":-0.12012170833090981,"119":0.13160616016851567,"120":0.44490686361345605,"121":-0.15859691432527898,"122":-0.07286168571678045,"123":0.12718285803381543,"124":-0.21129759542771273,"125":-0.29423812379026376,"126":-0.12611903203373456,"127":0.2031577479465834,"128":-0.31379673012897746,"129":-0.30901944087238875,"130":-0.41334633957387446,"131":0.16971310768579226,"132":0.0224769946233559,"133":-0.015265424835291435,"134":-0.03575576675155185,"135":0.0611734175614365,"136":0.037288140659538775,"137":-0.023473429000706328,"138":-0.06899495435663612,"139":0.12326587509414495,"140":-0.3837427932449029,"141":0.14111315467752295,"142":0.03281393776103776,"143":0.11920158562653733,"144":0.20569429636539194,"145":-0.06987468314639489,"146":-0.07727309156602875,"147":0.05343686872674632,"148":-0.09928819132643543,"149":-0.010019314963309323,"150":-0.13521861997159199,"151":-0.07783932061400761,"152":0.32647951060166774,"153":-0.16400392415978562,"154":-0.19085293630426672,"155":-0.20547476075553564,"156":0.09804979096877041,"157":-0.2302961000641602,"158":-0.19951167475129175,"159":0.19593848648634968,"160":0.4647954364245711,"161":0.22497172298271464,"162":0.2867966470268289,"163":0.1067429316504588,"164":0.13491878700660612,"165":-0.13596453114074322,"166":-0.23214980610434152,"167":0.05523217097697052,"168":-0.09396153360037461,"169":-0.1761850248653023,"170":-0.4057933911450693,"171":-0.24362614927567813,"172":-0.14357518580881706,"173":0.047273537048510963,"174":0.09233286500810721,"175":0.2214817886372285,"176":0.22974676053387671,"177":-0.2684053101646469,"178":-0.10003324638503293,"179":0.06658224918592147,"180":-0.08912086410859146,"181":0.004380146272699696,"182":-0.027765679034608505,"183":0.07710694005659931,"184":0.08783530144417503,"185":0.003699730196121097,"186":-0.13580555361720464,"187":0.17740740688952725,"188":0.17166599414797248,"189":-0.2938019280888114,"190":-0.5140981232606371,"191":0.16737600847894235,"192":0.18531001822746906,"193":-0.15118071450313533,"194":-0.27946988130185046,"195":-0.34686796447583024,"196":0.08219438242608842,"197":0.06596664905242168,"198":-0.3773693108158407,"199":0.40224927416921985}},{"sx":5,"sy":5,"depth":8,"w":{"0":-0.3208152660031999,"1":0.1845780356552499,"2":0.23463697451427595,"3":-0.06490214313513086,"4":-0.07087596437384926,"5":0.23117502712362642,"6":0.10298387481828451,"7":-0.2871183304238319,"8":0.2144376589822809,"9":0.07612955571213981,"10":0.4658314355769312,"11":-0.03840241011845853,"12":-0.030094361210065573,"13":-0.24837761172161638,"14":0.08056848839283393,"15":-0.019671577590838638,"16":0.021707571671343632,"17":0.14324224369376068,"18":0.13330188900491774,"19":0.2014422448965591,"20":0.17613461278654052,"21":0.45700771506732857,"22":0.08448336378539892,"23":0.26699100360634404,"24":0.025463763348258218,"25":-0.29963810455265233,"26":0.013591956116264268,"27":-0.20379129840612212,"28":0.2629448969181615,"29":0.3233271875790233,"30":-0.1808946534958642,"31":0.26655476788075433,"32":-0.11977389728089627,"33":-0.5983599777992237,"34":-0.11461269453022545,"35":0.011352800738622815,"36":-0.17850731919100557,"37":0.11877334214825497,"38":0.06112431078048055,"39":0.34173604609147834,"40":-0.13989940232289547,"41":0.14007101582862747,"42":-0.006762115630178507,"43":0.05207192554778398,"44":-0.12106813608512038,"45":-0.20885943690326692,"46":-0.2924451649097327,"47":-0.038054359110641346,"48":0.2618978450600825,"49":0.28652995456790414,"50":0.04246242478096422,"51":0.07566070422696605,"52":0.14897761165465945,"53":-0.15303886515328688,"54":-0.46490505634675183,"55":0.45418140946525715,"56":-0.18140378656054115,"57":-0.16579756528449172,"58":-0.29976871032003133,"59":-0.22661603703279798,"60":-0.19878814939378883,"61":0.04865867087840347,"62":-0.277047495707561,"63":0.3035148021730622,"64":0.04727362427175951,"65":-0.34551844020116695,"66":-0.14082223942277053,"67":0.3179000536809688,"68":-0.6351564685300158,"69":0.10384615613496097,"70":0.0061672395730263075,"71":0.35785112899883564,"72":-0.32456976263394316,"73":-0.3389662599244019,"74":-0.09760952743563436,"75":0.10041506935348012,"76":-0.5426396600353913,"77":0.19283415672989365,"78":0.1076812935635888,"79":0.23039301975661564,"80":-0.25476796224085596,"81":0.17907639213599566,"82":-0.307444568254946,"83":-0.005994222059262463,"84":0.23978165931080683,"85":0.1393528906940907,"86":0.05844219631452334,"87":-0.1830620956086911,"88":0.054103463627934605,"89":-0.2738503548096924,"90":-0.3418936302394091,"91":-0.13655034320845452,"92":-0.07091600329335619,"93":0.07747780544416162,"94":-0.10460766698018556,"95":-0.014739795286190977,"96":-0.03664981196462892,"97":-0.4016085839804654,"98":-0.026796258197056493,"99":0.22325497629983931,"100":-0.08800975587798779,"101":0.058377410404697586,"102":-0.30358923659024445,"103":0.1318569308498864,"104":0.0365256813701025,"105":-0.16618636250671356,"106":0.2860410141250091,"107":0.0705644029025906,"108":-0.08181040114566544,"109":0.17434993568134713,"110":0.07475555171671087,"111":-0.027686937146322504,"112":-0.37130984286076335,"113":-0.06840861835082362,"114":0.08954234072661932,"115":0.06216621054051093,"116":-0.25033428414653486,"117":-0.1498640378505416,"118":-0.20109122610655927,"119":0.02475212040833285,"120":0.0779662392554547,"121":0.07584430955308691,"122":0.05983653350574065,"123":-0.011460505677691957,"124":-0.11645075883370368,"125":0.13512506229042806,"126":-0.12379596516817959,"127":-0.35712236763709143,"128":-0.10774240570872379,"129":-0.05348183256544743,"130":0.06367947840455003,"131":0.0917035167757421,"132":-0.3444640315014753,"133":-0.026676277224640485,"134":0.09595399284158616,"135":-0.1318455231691129,"136":0.21565952434279564,"137":-0.019188995805125127,"138":-0.08017269967063383,"139":0.13744292201566904,"140":-0.2380904784782099,"141":0.2749637918762084,"142":0.34099094896647025,"143":-0.1258962511262333,"144":-0.003065032447988938,"145":0.02831812599945964,"146":-0.2662035198980578,"147":-0.08949179894390044,"148":-0.1456182388992191,"149":-0.14973819849286915,"150":-0.09863075973993204,"151":0.20955319483475995,"152":-0.4641556020962601,"153":-0.18854247600834004,"154":-0.162259417806018,"155":0.06301423398456484,"156":-0.2838017216401744,"157":-0.011718683648671586,"158":0.026130906924805138,"159":0.07719862492799276,"160":-0.003924320531409098,"161":0.13274323871066604,"162":0.2695325269934641,"163":0.2786393868455497,"164":-0.3117544536282015,"165":-0.21068101301949527,"166":0.03413414966096696,"167":0.1100678875343782,"168":-0.14775487505434542,"169":0.13638447116541255,"170":0.15063908960035202,"171":-0.29375933655002573,"172":-0.014737629300206488,"173":-0.08268737763352628,"174":0.06525158078569686,"175":0.11257387783544098,"176":0.0033619510108055615,"177":0.0276525587594372,"178":-0.3927066697537802,"179":0.07024735107402313,"180":-0.14575801296016508,"181":-0.20863689531360313,"182":-0.30361073956939044,"183":-0.1535156296623005,"184":0.054388029831840386,"185":-0.038542615056648494,"186":0.03566180858066348,"187":-0.1643276039031141,"188":-0.45184820154365996,"189":0.0403491761543593,"190":-0.3295125450456022,"191":0.04849355963380064,"192":-0.646643995448408,"193":-0.035704604512988285,"194":0.30827532828569215,"195":0.003962318129712532,"196":-0.2784430124800391,"197":0.22788289819433752,"198":0.21627327145234204,"199":-0.048026153212275845}},{"sx":5,"sy":5,"depth":8,"w":{"0":0.17720050952860172,"1":0.12304365436921093,"2":0.21702551489703278,"3":0.20021050047316774,"4":0.1455621033579315,"5":-0.16150125786711997,"6":0.13073120354778256,"7":-0.26669378917812864,"8":-0.27235253650479385,"9":0.05938130634341956,"10":0.4018459643150258,"11":0.04653279576154379,"12":0.1839965570439563,"13":-0.1246436203650833,"14":0.27111581489622877,"15":-0.02219613155482614,"16":0.06124226545426091,"17":0.11819724111584808,"18":0.14409354116049994,"19":0.2578775201030947,"20":0.036604602056722994,"21":0.038790612396100245,"22":0.015107806615954471,"23":-0.023938966614263448,"24":0.0529247319940965,"25":-0.1466632518350633,"26":0.13416280856490218,"27":-0.023496282879171177,"28":0.17555973528726126,"29":0.12471197324836786,"30":0.1744432333943811,"31":0.3390823224005815,"32":-0.08766283755767305,"33":-0.08098122580482757,"34":-0.12828066267103172,"35":-0.03463124002794569,"36":-0.03210832686369622,"37":0.10677853150467631,"38":0.22484497092631472,"39":0.3115655074580382,"40":0.124977477942285,"41":-0.17972361304355158,"42":-0.20755713410419852,"43":0.38569098699923315,"44":0.13103025969737905,"45":-0.0449576356288325,"46":0.3120577926846251,"47":0.028600661014150326,"48":-0.23666787146197696,"49":-0.2987089145601685,"50":-0.39334414041508475,"51":-0.14326835693595352,"52":-0.17609605377961793,"53":0.2504061802919489,"54":0.24142043930369303,"55":0.08322101680090238,"56":-0.1610071673508081,"57":-0.10158591668335006,"58":-0.3368098852540521,"59":0.152523499356311,"60":-0.10185190124614751,"61":0.028289853836553632,"62":0.2600654823130849,"63":0.25973924805740595,"64":-0.05105628271192472,"65":0.05623158369498088,"66":-0.09431765625486357,"67":0.033290572967388216,"68":-0.08398694283101989,"69":-0.0780381576827738,"70":-0.07095871458288269,"71":0.3532684939226445,"72":-0.09312271188668977,"73":-0.2378800495510994,"74":-0.028176321862301786,"75":-0.09585271446179607,"76":-0.1465467580279191,"77":-0.14117109938596997,"78":-0.3862950606481493,"79":0.2717777914569675,"80":0.019774267560805924,"81":-0.03234830021620366,"82":-0.2505873154043084,"83":0.08367223660438644,"84":0.275047074696253,"85":0.015471778868181862,"86":0.3124516214144353,"87":-0.17538430465599741,"88":-0.1260562699594381,"89":-0.031009046904589575,"90":-0.3287200332977099,"91":-0.11405606650425247,"92":0.32998732082342924,"93":0.08296824216774065,"94":0.3339689517528749,"95":-0.022800380216593124,"96":-0.03985114543512426,"97":0.18710947312163861,"98":0.11386968602951097,"99":-0.3419904243136469,"100":0.3495828940154851,"101":0.013891077577948711,"102":0.12054459553641157,"103":0.22149414136264375,"104":0.0674955863591535,"105":-0.16106119368121424,"106":-0.03238838096618596,"107":-0.19709332595024942,"108":0.22534701587432363,"109":0.1290037502215511,"110":-0.01537080857112966,"111":0.31751374251494374,"112":-0.07618582284507003,"113":-0.2961368484507107,"114":0.13373078707168773,"115":-0.2751755458339178,"116":-0.007363625351095535,"117":-0.10496679739773844,"118":-0.30300546810937873,"119":-0.07758033954081117,"120":0.023832050026641047,"121":-0.28611874191147296,"122":0.09791503178968784,"123":-0.05656034302530307,"124":-0.40342405428409334,"125":0.10720164955458776,"126":0.3961425428399516,"127":-0.07371972427817249,"128":-0.2836790311058036,"129":-0.05888539128498502,"130":0.1940428156598754,"131":-0.17343118708859412,"132":-0.14901430239583252,"133":0.24538640986542215,"134":0.37175945745295236,"135":-0.544302772732411,"136":-0.4616306554754588,"137":0.09100161382461294,"138":0.23557412580599302,"139":-0.35539750805592446,"140":-0.20603457934532407,"141":-0.11970206131421189,"142":-0.12094780300644899,"143":-0.3897022160427875,"144":-0.24077633189024628,"145":0.0016679124548537607,"146":0.0456300461589134,"147":0.2700988672014572,"148":-0.08989711607614302,"149":0.06561636004680797,"150":0.026499159193879157,"151":-0.21278751504490973,"152":-0.00426781421962739,"153":-0.1252137155377076,"154":0.19130871970296395,"155":0.105368494944447,"156":-0.03793718329040113,"157":0.009568252193845574,"158":-0.28684346428808044,"159":-0.2712725852745168,"160":-0.3497104729738886,"161":0.24889454789522283,"162":0.14760682241974823,"163":-0.27561776874349986,"164":-0.30181666264774076,"165":-0.3488266764101926,"166":-0.0536815677910971,"167":0.025202412446854026,"168":-0.27175236783918594,"169":0.10982934222479038,"170":0.0038618904972422506,"171":-0.2449443544101448,"172":-0.3805715534226888,"173":-0.06461068810201212,"174":-0.2674730677397702,"175":-0.15063406444341043,"176":-0.4100653359041812,"177":0.2662930070199133,"178":0.2054954847756696,"179":-0.05324294851493888,"180":-0.03384185496019031,"181":-0.31597345058674126,"182":-0.11227352961644006,"183":-0.1563418346466695,"184":-0.6864400878501614,"185":0.060158397803263146,"186":0.22069300555017723,"187":-0.04756215725379576,"188":0.02959863233148402,"189":-0.041422327972441296,"190":-0.18674142187323747,"191":-0.19594696021691635,"192":-0.1603089337626333,"193":0.0168118687579896,"194":0.2957295746815886,"195":0.17469427049199823,"196":-0.14429289169212503,"197":-0.3641843847144133,"198":-0.3785083348915455,"199":-0.1878270708690161}},{"sx":5,"sy":5,"depth":8,"w":{"0":-0.10814452729632883,"1":-0.5090256213831222,"2":-0.35233050532756127,"3":-0.2330547297417941,"4":-0.29127654070997916,"5":-0.35777095582569085,"6":-0.1895703538383246,"7":-0.30741421930777085,"8":0.28678283046427877,"9":-0.07859559625054106,"10":0.12326778330324956,"11":0.13523156749542936,"12":0.19124940509561594,"13":0.11345017215559289,"14":0.06771281815976196,"15":-0.011493057328575605,"16":0.1579882726235421,"17":0.02113604136954573,"18":-0.2435921562865621,"19":-0.007039032337956422,"20":0.26326692527703316,"21":0.07949456952936851,"22":-0.08431392808899335,"23":0.11275123440643332,"24":0.2516877669195711,"25":-0.2257766366136238,"26":-0.0018116746825757337,"27":0.021298848504338563,"28":-0.11908341803405587,"29":0.016155741867851084,"30":-0.08894502835266906,"31":-0.18303909237175106,"32":0.2715272015797186,"33":-0.15592618851351778,"34":-0.24007747230507878,"35":0.3048285557068093,"36":-0.20263336759797923,"37":-0.07740373449155395,"38":-0.12064904015025435,"39":0.2878063140491867,"40":0.418995066644594,"41":-0.15598256136995226,"42":-0.01896776509349885,"43":-0.13307905783766644,"44":0.011665938970016852,"45":-0.5597935852380532,"46":-0.05630774079281015,"47":0.11346532572284913,"48":-0.185470225651782,"49":-0.12414684002371544,"50":-0.12130592195980885,"51":-0.17390553490815522,"52":-0.11773766866938382,"53":0.31323940684469875,"54":-0.36162822803546957,"55":-0.0032906558694473327,"56":0.2080430741710478,"57":0.1370892664875976,"58":-0.09614330567063635,"59":-0.14962116421783586,"60":-0.1074635348320313,"61":-0.11607548120855184,"62":-0.22781959247388908,"63":0.16935458590481842,"64":0.18737917036443816,"65":0.03571905678186447,"66":0.012093863044457918,"67":0.16221395928082702,"68":0.2612646354507888,"69":-0.13384933448955544,"70":-0.13032970452801654,"71":-0.15369281550901806,"72":0.2731141138081799,"73":-0.08318823124324728,"74":-0.24813795662940635,"75":0.06517718405308989,"76":0.0927152025295593,"77":-0.27714251231185805,"78":-0.2289364376746687,"79":0.20058028947341272,"80":0.47345744609625035,"81":-0.30944495755955204,"82":-0.07602669935653909,"83":-0.4400260360669816,"84":0.1710174216939941,"85":-0.06929827480522882,"86":-0.5209520015807144,"87":0.20108347685491063,"88":-0.16485812983836806,"89":-0.1719030078430692,"90":-0.17472405479667916,"91":0.052659986012623845,"92":-0.21081047207550815,"93":0.3803328479923344,"94":-0.34547672148798236,"95":-0.01456648336635889,"96":0.3159903860354605,"97":0.005626088581467668,"98":0.12804082399327527,"99":0.26092019852276205,"100":-0.25655872455772055,"101":0.038142507750808054,"102":0.14922406242828876,"103":-0.08276055420042486,"104":-0.2653004636063448,"105":0.18852961669657786,"106":0.15623639054644275,"107":0.13899067806956056,"108":0.26146674456116564,"109":-0.022580896420247482,"110":0.38797669420573666,"111":-0.0010234356864785078,"112":0.13079357825430768,"113":-0.05929540965269531,"114":0.06098696782692322,"115":0.007362307968781941,"116":0.021668680468330013,"117":0.06099102664961013,"118":-0.23741174099100054,"119":0.03715767250660733,"120":0.13150682380742704,"121":0.09638061492051166,"122":-0.2605792239958061,"123":-0.08718771389908744,"124":0.18361127946934985,"125":-0.10563634690193467,"126":0.0556552980624045,"127":0.1598487147525189,"128":-0.047130012875245715,"129":0.11444027043124361,"130":-0.5130014015976674,"131":0.38521568278559326,"132":0.2619858423535102,"133":0.07662909269012992,"134":0.49089864458652727,"135":-0.3771402190372399,"136":-0.012334609261989997,"137":0.25382302751436975,"138":-0.30355743731014895,"139":0.18841065208538096,"140":0.30150980248264814,"141":-0.12072022605984126,"142":0.3595930507516222,"143":-0.3616457714885193,"144":-0.3258644748953058,"145":0.1609006115463771,"146":-0.21886970836362896,"147":0.15134995245673882,"148":0.0964966609560234,"149":0.1096448223527127,"150":0.03847844159357604,"151":-0.3193398704630007,"152":0.005974689563427964,"153":-0.05502269959141806,"154":0.0023223818039003175,"155":-0.002974856231891444,"156":-0.2997948245669112,"157":0.2898728210366482,"158":-0.16833295326693756,"159":-0.380866746305762,"160":0.20468781304647524,"161":-0.24238144166052106,"162":-0.10096733724468449,"163":-0.14449236619460207,"164":-0.18369049963811282,"165":-0.10577682751698912,"166":-0.2313147161372192,"167":0.31931934149311375,"168":-0.3076649659853556,"169":-0.024038110700580897,"170":0.09964926663699976,"171":-0.31576203471479286,"172":-0.32291048123945465,"173":0.4009991323406454,"174":0.5748125125530115,"175":0.0021622692199045335,"176":0.06149214347457798,"177":0.046796319798530016,"178":0.08336406768021042,"179":-0.06127981116771326,"180":-0.005673545633612236,"181":0.24828521882935867,"182":0.19042852786528394,"183":-0.4236806333765737,"184":0.2140267985653568,"185":0.1852850423178015,"186":0.09862305933974068,"187":0.18283513679365823,"188":-0.10332600647387558,"189":-0.2289664729767489,"190":-0.03532640655137118,"191":-0.03153324485183347,"192":-0.5040125989810638,"193":0.03778687480039016,"194":0.017578905205204647,"195":0.13521040641038187,"196":-0.15837250454808904,"197":0.11528638469228482,"198":0.032604456333480664,"199":-0.15509978692950915}}],"biases":{"sx":1,"sy":1,"depth":16,"w":{"0":-0.08509724637136215,"1":-0.11417942932865249,"2":-0.08768878599540142,"3":0.025205289299977212,"4":-0.03392355171195712,"5":-0.11623778369004902,"6":-0.37124093093264293,"7":-0.5257963942259359,"8":-0.537685297464391,"9":-0.31973787181838514,"10":-0.14467668037600964,"11":-0.07659623657252776,"12":-0.1949607061085172,"13":-0.023989544911533312,"14":-0.20810495548535757,"15":-0.6019683477243895}}},{"out_depth":16,"out_sx":14,"out_sy":14,"layer_type":"relu"},{"sx":3,"sy":3,"stride":3,"in_depth":16,"out_depth":16,"out_sx":4,"out_sy":4,"layer_type":"pool","pad":0},{"out_depth":10,"out_sx":1,"out_sy":1,"layer_type":"fc","num_inputs":256,"l1_decay_mul":0,"l2_decay_mul":1,"filters":[{"sx":1,"sy":1,"depth":256,"w":{"0":-0.08820968523456366,"1":-0.09357995390337029,"2":-0.21033831065647862,"3":-0.1890939190558524,"4":-0.15945815695923352,"5":-0.008514298672650257,"6":-0.026104163781471283,"7":-0.11630010465101474,"8":-0.08075215000115868,"9":-0.051103507016258605,"10":-0.055622765626055184,"11":-0.011697259895897366,"12":-0.12046534428926978,"13":-0.09809267468276488,"14":-0.0067496076192374976,"15":-0.04187756168488941,"16":-0.11525678351592944,"17":-0.1673496480825112,"18":-0.37881833492958134,"19":-0.17027333118775023,"20":-0.14872986527149348,"21":-0.1805058495759042,"22":-0.25865156205117346,"23":-0.31494672425073883,"24":-0.16186288977650623,"25":-0.3901686187305227,"26":-0.2732592553653819,"27":-0.051833796840049975,"28":-0.21598602545444612,"29":-0.11799868245073447,"30":-0.19632935077393263,"31":-0.1414670108426597,"32":-0.008827538191757201,"33":-0.18805201866104604,"34":-0.3544027105402151,"35":-0.23291981594818437,"36":-0.24914596835447192,"37":-0.04888133388258425,"38":-0.3096077455804191,"39":-0.22115287080064763,"40":-0.043590132263797626,"41":-0.06120106472854496,"42":-0.35736835002126466,"43":-0.2827937136441199,"44":-0.3902983732184276,"45":-0.06124861211785145,"46":-0.282131917291143,"47":-0.2637101430305866,"48":-0.0743402330990201,"49":-0.09337100190719216,"50":-0.4783497368138992,"51":-0.0573561276264111,"52":-0.08620859979255203,"53":-0.058853194565570754,"54":-0.23103588840589478,"55":-0.25345699060128096,"56":-0.04178023849018638,"57":-0.09849004764572258,"58":-0.27830381818815697,"59":-0.2382874251572445,"60":-0.25715111437100524,"61":-0.03035885333836899,"62":-0.1011777669833771,"63":-0.32731921153853333,"64":-0.22137927835091498,"65":-0.16666517511624018,"66":-0.14311251894067195,"67":-0.1150669155498643,"68":-0.154913468392462,"69":-0.06407499685905203,"70":-0.33093002582077297,"71":-0.1615170461180239,"72":-0.16764406741179763,"73":-0.047628610915845686,"74":0.048142130095154494,"75":-0.028381655069130676,"76":-0.06227384682752399,"77":-0.16940497603773483,"78":-0.01530522619218172,"79":-0.09793225547911091,"80":-0.4891406102975665,"81":-0.2900747323409008,"82":0.1616782032728647,"83":-0.1031971714247128,"84":-0.4197655663679757,"85":-0.04322337668182221,"86":-0.10812673037119418,"87":-0.2164368793838836,"88":-0.15442945398892435,"89":-0.1649448903936531,"90":-0.28537622728342743,"91":-0.1544555026532233,"92":-0.15739755141750492,"93":-0.06759808847328683,"94":-0.2277799414885521,"95":-0.31867588375100453,"96":0.14805090493920775,"97":-0.23178753722448417,"98":-0.08012310436437411,"99":-0.14410844065513465,"100":-0.06046378665278106,"101":0.020845434820534164,"102":0.07803809854425478,"103":-0.20757931385195957,"104":-0.22047409918023905,"105":-0.3911379071765533,"106":-0.15003062736387043,"107":0.02049334035077125,"108":-0.153827917339674,"109":-0.1436042202626777,"110":-0.34551354622153563,"111":-0.2264955753025962,"112":0.1796607408915645,"113":-0.04434978641610796,"114":0.5098151594100351,"115":-0.40193632946982066,"116":0.007907860793679193,"117":-0.16024228017336864,"118":-0.15261904941335658,"119":-0.18593486829725522,"120":-0.2008037781334294,"121":-0.0474084247008829,"122":-0.2511067723481434,"123":-0.15410139724599015,"124":-0.07508363482629449,"125":-0.0827519764181483,"126":-0.30597803035277843,"127":-0.14169027475920162,"128":-0.15947424367128907,"129":-0.24860610533757216,"130":-0.27067197944950017,"131":-0.0864935113549491,"132":-0.3775957006637016,"133":-0.457015290161083,"134":-0.26347329318688467,"135":-0.2487508163580705,"136":0.010750815272789834,"137":-0.20782235090944542,"138":-0.12844543009501633,"139":-0.15915087043192666,"140":0.040944753431939436,"141":-0.0843930901992401,"142":-0.13966309001035065,"143":0.14081005576568145,"144":-0.35233754820032115,"145":-0.1587038267576449,"146":-0.052590317590914766,"147":0.04044189915320706,"148":-0.3951335331947184,"149":-0.2509407816537889,"150":-0.40306415129259987,"151":-0.3276591137424615,"152":-0.08485364909888216,"153":-0.6782295739086752,"154":-0.4179222925000038,"155":-0.10415864908196489,"156":0.008192357586054088,"157":-0.01410362512232785,"158":-0.31622540718444936,"159":-0.29748856684689157,"160":-0.3553747273262794,"161":0.2401119946201469,"162":-0.32257879116893934,"163":0.11250293602025775,"164":-0.08930578991269572,"165":-0.0753647472651593,"166":-0.5926585401509419,"167":-0.31313705973085765,"168":-0.4401833664650673,"169":-0.6391133633206241,"170":-0.23736859992415146,"171":-0.20433537181499256,"172":0.0938639900278357,"173":-0.5906240572689052,"174":-0.36625638490589274,"175":-0.2199282672632648,"176":-0.014483377493633424,"177":0.03582573633517768,"178":0.15870013239611835,"179":-0.47023717446247343,"180":-0.05143852406485322,"181":-0.8877370992273771,"182":-0.5314974230817685,"183":-0.10832099935657655,"184":-0.36135668741349053,"185":-0.024246972631638955,"186":-0.05611625303883756,"187":-0.2086319703721618,"188":-0.3693427911221258,"189":-0.33507103756179846,"190":0.05411044237361478,"191":-0.3059196232976955,"192":-0.22419611440705275,"193":-0.20895256786782182,"194":-0.1772230284943718,"195":-0.07046347172811959,"196":-0.25833959155363245,"197":-0.03576503078423769,"198":-0.26059472654985155,"199":-0.3003115274487076,"200":-0.13123371341564888,"201":0.003912376657432753,"202":-0.2692937504763316,"203":-0.1641735662569575,"204":-0.03468750420515039,"205":0.0584881469084216,"206":0.003527065292690778,"207":-0.06817737705455984,"208":0.13344275842382292,"209":0.03499203541978158,"210":-0.4748386451019159,"211":-0.11077195455533094,"212":-0.5212950922307785,"213":-0.1265666712551503,"214":0.010059107310358292,"215":-0.02901898896416566,"216":-0.21905168173442366,"217":-0.06719689320484488,"218":-0.24606566083521056,"219":0.3123276760525433,"220":0.01969180084128956,"221":-0.2158773772099158,"222":-0.23760855847517473,"223":0.07832312162961264,"224":-0.4298796406399586,"225":-0.04731161425049597,"226":-0.3141073336486697,"227":-0.37705995452865265,"228":-0.3271243372495075,"229":0.0012417157668482414,"230":-0.18975271281087858,"231":0.016396570498641468,"232":-0.30508593197369266,"233":-0.18075219481830693,"234":-0.27377949605583674,"235":-0.23545275365168167,"236":-0.07002378495932723,"237":-0.16949549510662296,"238":0.025731538892453096,"239":-0.16393882381663621,"240":-0.38931052664835986,"241":-0.13920641629256994,"242":-0.44952701212524543,"243":-0.00875921030946406,"244":0.17137047358280974,"245":-0.44355241293015985,"246":-0.14382389720327238,"247":-0.2445112354532657,"248":-0.07035196852158893,"249":-0.09126097899171802,"250":0.01402862005579588,"251":-0.6042200338343968,"252":-0.3645797343685742,"253":-0.17605449681547172,"254":-0.03917574281761601,"255":-0.27709754706421086}},{"sx":1,"sy":1,"depth":256,"w":{"0":-0.08781241602733393,"1":-0.02546186266385926,"2":-0.21312328839481484,"3":-0.19593998321020348,"4":-0.07062103841376415,"5":-0.01955009555972748,"6":-0.061481122593740396,"7":-0.0345643564983775,"8":-0.11643113058610169,"9":0.018672680521953023,"10":-0.0038928733953990592,"11":-0.15969008677771904,"12":-0.15347504895100642,"13":-0.14454371276699296,"14":-0.011919900304816941,"15":-0.02798673875597497,"16":0.1314855681599866,"17":-0.26145569383817907,"18":-0.25854127078201217,"19":-0.10200195847386409,"20":-0.12005447931863361,"21":-0.27307113784339665,"22":-0.15297601173027317,"23":-0.24430023334040715,"24":-0.05730333769650912,"25":-0.09064716740721354,"26":-0.035454620454223415,"27":0.16676749459966805,"28":-0.058039658084797954,"29":0.11642500266555098,"30":-0.18508402338490704,"31":-0.16305617456966126,"32":-0.10872303844542539,"33":-0.28729832657038906,"34":0.10094397713568147,"35":-0.018966942815066806,"36":0.24640324653370207,"37":-0.37462616320511855,"38":-0.2743169332516908,"39":-0.18349036237960015,"40":0.2072215400208836,"41":-0.10096569469286211,"42":-0.19142205385366395,"43":-0.045582830212941544,"44":0.3382506662557372,"45":-0.031298135141511856,"46":-0.08760445517512308,"47":-0.43403691876505157,"48":-0.052212752005478244,"49":-0.2831812738010824,"50":0.3552501494519704,"51":-0.1060025823753359,"52":-0.0725191305937163,"53":-0.2239921394493663,"54":-0.08023809304356654,"55":-0.10188462003498944,"56":-0.022250018603868358,"57":0.020149583429574947,"58":-0.2112597345090748,"59":-0.07531387487435325,"60":-0.09602476190889624,"61":0.15725029536490112,"62":-0.12980654878319864,"63":-0.34618298074720183,"64":-0.10300921793254558,"65":-0.2761938880704546,"66":-0.19676319878989781,"67":-0.1587103235946693,"68":-0.2295794166010744,"69":-0.18991199637713865,"70":-0.16387429704389053,"71":-0.06476975447666665,"72":-0.2766388638564275,"73":-0.021394837733805336,"74":0.10469709474643268,"75":-0.1140065856967436,"76":-0.333021195014363,"77":-0.01475043344614478,"78":-0.053109462742478825,"79":-0.09575299867011292,"80":-0.014656300003304715,"81":-0.16534052969286162,"82":-0.4852275613492155,"83":-0.07354320088975456,"84":-0.4878021750491786,"85":-0.2843651849625451,"86":-0.20069551167710228,"87":-0.3601916010748787,"88":0.08501122437999216,"89":-0.0540944802790024,"90":-0.12771915840605175,"91":0.16284287038536213,"92":-0.001962360876466886,"93":0.029061070941588368,"94":-0.15346635725890376,"95":-0.07320869446301612,"96":-0.045816450953632536,"97":0.09471487434420756,"98":0.08198510629166826,"99":-0.0295535438104012,"100":-0.06902050327984843,"101":-0.37402884107659917,"102":-0.2713175090315105,"103":-0.4072352591962761,"104":-0.01957753185625484,"105":-0.23365783658683092,"106":-0.22684247113713016,"107":0.08898862471799554,"108":0.03107751073970976,"109":0.022081998182495642,"110":-0.3112239745769219,"111":-0.5341166063099053,"112":-0.15532302068820322,"113":-0.11586212839576693,"114":-0.19665418543707666,"115":0.04240416341655102,"116":0.021442453148643698,"117":-0.30989986255065916,"118":-0.1003847379095514,"119":-0.22027157539931586,"120":-0.05075614710992318,"121":-0.1597238786389349,"122":-0.11136339466852446,"123":0.15460226550130324,"124":-0.20322615553792583,"125":-0.00564038454505639,"126":-0.16587309291716076,"127":-0.03462670162156154,"128":-0.31409069106306375,"129":-0.3130666954685705,"130":-0.2899552212457832,